{"learner":{"attributes":{"best_iteration":"298","best_score":"0.8348726972102202","scikit_learn":"{\"_estimator_type\": \"classifier\"}"},"feature_names":["dbp_max","gcs_eye_max","gcs_motor_max","gcs_verbal_max","heart_rate_max","mbp_max","resp_rate_max","sbp_max","spo2_max","temperature_max","dbp_mean","gcs_eye_mean","gcs_motor_mean","gcs_verbal_mean","heart_rate_mean","mbp_mean","resp_rate_mean","sbp_mean","spo2_mean","temperature_mean","dbp_min","gcs_eye_min","gcs_motor_min","gcs_verbal_min","heart_rate_min","mbp_min","resp_rate_min","sbp_min","spo2_min","temperature_min","dbp_n_measurements","gcs_eye_n_measurements","gcs_motor_n_measurements","gcs_verbal_n_measurements","heart_rate_n_measurements","mbp_n_measurements","resp_rate_n_measurements","sbp_n_measurements","spo2_n_measurements","temperature_n_measurements","bicarbonate_max","bun_max","chloride_max","creatinine_max","glucose_max","hematocrit_max","hemoglobin_max","lactate_max","platelets_max","potassium_max","sodium_max","wbc_max","bicarbonate_mean","bun_mean","chloride_mean","creatinine_mean","glucose_mean","hematocrit_mean","hemoglobin_mean","lactate_mean","platelets_mean","potassium_mean","sodium_mean","wbc_mean","bicarbonate_min","bun_min","chloride_min","creatinine_min","glucose_min","hematocrit_min","hemoglobin_min","lactate_min","platelets_min","potassium_min","sodium_min","wbc_min","bicarbonate_n_measurements","bun_n_measurements","chloride_n_measurements","creatinine_n_measurements","glucose_n_measurements","hematocrit_n_measurements","hemoglobin_n_measurements","lactate_n_measurements","platelets_n_measurements","potassium_n_measurements","sodium_n_measurements","wbc_n_measurements","med_antipsychotic","med_benzodiazepine","med_dexmedetomidine","med_opioid","med_propofol","age","gender_F","gender_M","race_simple_ASIAN","race_simple_BLACK","race_simple_HISPANIC","race_simple_OTHER","race_simple_UNKNOWN","race_simple_WHITE","first_careunit_Cardiac Vascular Intensive Care Unit (CVICU)","first_careunit_Coronary Care Unit (CCU)","first_careunit_Intensive Care Unit (ICU)","first_careunit_Med/Surg","first_careunit_Medical Intensive Care Unit (MICU)","first_careunit_Medical/Surgical Intensive Care Unit (MICU/SICU)","first_careunit_Medicine","first_careunit_Medicine/Cardiology Intermediate","first_careunit_Neuro Intermediate","first_careunit_Neuro Stepdown","first_careunit_Neuro Surgical Intensive Care Unit (Neuro SICU)","first_careunit_Neurology","first_careunit_PACU","first_careunit_Surgery/Trauma","first_careunit_Surgery/Vascular/Intermediate","first_careunit_Surgical Intensive Care Unit (SICU)","first_careunit_Trauma SICU (TSICU)","admission_type_AMBULATORY OBSERVATION","admission_type_DIRECT EMER.","admission_type_DIRECT OBSERVATION","admission_type_ELECTIVE","admission_type_EU OBSERVATION","admission_type_EW EMER.","admission_type_OBSERVATION ADMIT","admission_type_SURGICAL SAME DAY ADMISSION","admission_type_URGENT"],"feature_types":["float","float","float","float","float","float","float","float","float","float","float","float","float","float","float","float","float","float","float","float","float","float","float","float","float","float","float","float","float","float","float","float","float","float","float","float","float","float","float","float","float","float","float","float","float","float","float","float","float","float","float","float","float","float","float","float","float","float","float","float","float","float","float","float","float","float","float","float","float","float","float","float","float","float","float","float","float","float","float","float","float","float","float","float","float","float","float","float","int","int","int","int","int","int","int","int","int","int","int","int","int","int","int","int","int","int","int","int","int","int","int","int","int","int","int","int","int","int","int","int","int","int","int","int","int","int","int","int"],"gradient_booster":{"model":{"cats":{"enc":[],"feature_segments":[],"sorted_idx":[]},"gbtree_model_param":{"num_parallel_tree":"1","num_trees":"300"},"iteration_indptr":[0,1,2,3,4,5,6,7,8,9,10,11,12,13,14,15,16,17,18,19,20,21,22,23,24,25,26,27,28,29,30,31,32,33,34,35,36,37,38,39,40,41,42,43,44,45,46,47,48,49,50,51,52,53,54,55,56,57,58,59,60,61,62,63,64,65,66,67,68,69,70,71,72,73,74,75,76,77,78,79,80,81,82,83,84,85,86,87,88,89,90,91,92,93,94,95,96,97,98,99,100,101,102,103,104,105,106,107,108,109,110,111,112,113,114,115,116,117,118,119,120,121,122,123,124,125,126,127,128,129,130,131,132,133,134,135,136,137,138,139,140,141,142,143,144,145,146,147,148,149,150,151,152,153,154,155,156,157,158,159,160,161,162,163,164,165,166,167,168,169,170,171,172,173,174,175,176,177,178,179,180,181,182,183,184,185,186,187,188,189,190,191,192,193,194,195,196,197,198,199,200,201,202,203,204,205,206,207,208,209,210,211,212,213,214,215,216,217,218,219,220,221,222,223,224,225,226,227,228,229,230,231,232,233,234,235,236,237,238,239,240,241,242,243,244,245,246,247,248,249,250,251,252,253,254,255,256,257,258,259,260,261,262,263,264,265,266,267,268,269,270,271,272,273,274,275,276,277,278,279,280,281,282,283,284,285,286,287,288,289,290,291,292,293,294,295,296,297,298,299,300],"tree_info":[0,0,0,0,0,0,0,0,0,0,0,0,0,0,0,0,0,0,0,0,0,0,0,0,0,0,0,0,0,0,0,0,0,0,0,0,0,0,0,0,0,0,0,0,0,0,0,0,0,0,0,0,0,0,0,0,0,0,0,0,0,0,0,0,0,0,0,0,0,0,0,0,0,0,0,0,0,0,0,0,0,0,0,0,0,0,0,0,0,0,0,0,0,0,0,0,0,0,0,0,0,0,0,0,0,0,0,0,0,0,0,0,0,0,0,0,0,0,0,0,0,0,0,0,0,0,0,0,0,0,0,0,0,0,0,0,0,0,0,0,0,0,0,0,0,0,0,0,0,0,0,0,0,0,0,0,0,0,0,0,0,0,0,0,0,0,0,0,0,0,0,0,0,0,0,0,0,0,0,0,0,0,0,0,0,0,0,0,0,0,0,0,0,0,0,0,0,0,0,0,0,0,0,0,0,0,0,0,0,0,0,0,0,0,0,0,0,0,0,0,0,0,0,0,0,0,0,0,0,0,0,0,0,0,0,0,0,0,0,0,0,0,0,0,0,0,0,0,0,0,0,0,0,0,0,0,0,0,0,0,0,0,0,0,0,0,0,0,0,0,0,0,0,0,0,0,0,0,0,0,0,0,0,0,0,0,0,0,0,0,0,0,0,0,0,0,0,0,0,0],"trees":[{"base_weights":[-4.9186667E-8,8.2208216E-1,-1.0913239E0,2.5595185E-1,9.0922725E-1,-1.1729511E0,5.913378E-1,-8.585584E-2,9.9211675E-1,9.544539E-1,4.45984E-2,-1.2142193E0,7.573411E-1,7.990849E-1,-1.8201084E-1,5.8361802E-2,-6.50523E-1,1.0489057E0,4.8040217E-1,2.0287311E-1,1.0015805E0,2.0182733E-1,-7.845827E-1,-1.3296047E0,-7.575582E-1,-7.906312E-2,1.0069318E0,5.973184E-1,1.1121793E0,-1.2991265E0,3.0764658E-2,-1.1615467E-1,4.706782E-1,-1.3739753E0,-4.6960124E-1,1.0992898E0,3.8079008E-1,5.952633E-1,-1.2008022E0,5.472118E-1,-1.11583605E-1,9.1140825E-1,1.2579204E0,-1.2955956E-1,3.4254107E-1,-1.3793447E0,2.686961E-1,-1.4170498E0,-9.1891026E-1,-8.385948E-1,1.07792474E-1,-3.3934498E-1,6.2949747E-1,2.463471E-1,1.1152744E0,-1.300692E-1,7.2962373E-1,-1.1698049E0,1.132826E0,-9.8400004E-2,-8.2527494E-1,1.5074849E-1,-7.879674E-1,-2.1850679E-3,-3.9292265E-2,3.1881526E-2,-2.0742366E-2,-7.167557E-2,4.7950864E-2,-3.460991E-2,-4.872236E-3,-7.931219E-3,5.5963684E-2,2.3595987E-2,-9.272727E-2,3.244693E-2,-6.343709E-2,-9.6E-2,2.4803048E-2,8.538178E-3,3.531947E-2,1.1561168E-2,-1.796802E-2,4.7949843E-2,2.5178013E-2,6.0700476E-2,7.653769E-2,1.8447176E-2,-1.5344358E-2,-2.2802787E-2,2.0258887E-2,-7.7382915E-2,-1.6848348E-2,-6.733041E-2,1.7740812E-2,-3.7417874E-2,-7.295035E-2,-5.2586388E-2,-1.2513812E-2,-7.857489E-2,-3.7230544E-2,-6.595275E-3,3.0207733E-2,-4.497017E-3,-3.937247E-2,5.0305486E-2,-4.3124102E-2,6.2323537E-2,-6.684637E-3,5.9986036E-2,3.1600352E-2,1.0394222E-2,-4.410177E-2,4.0320944E-2,-1.5770951E-2,6.859839E-2,-9.0697676E-2,5.993865E-2,2.6784578E-2,3.499874E-2,-5.791189E-2,-4.700929E-2,1.18397E-2,-1.8189678E-2,-8.369767E-2],"categories":[],"categories_nodes":[],"categories_segments":[],"categories_sizes":[],"default_left":[0,0,0,0,0,0,0,0,0,0,0,0,0,0,0,0,0,0,0,0,0,0,0,0,0,0,0,0,0,0,0,0,0,0,0,0,0,0,0,0,0,0,0,0,0,0,0,0,0,0,0,0,0,0,0,0,0,0,0,0,0,0,0,0,0,0,0,0,0,0,0,0,0,0,0,0,0,0,0,0,0,0,0,0,0,0,0,0,0,0,0,0,0,0,0,0,0,0,0,0,0,0,0,0,0,0,0,0,0,0,0,0,0,0,0,0,0,0,0,0,0,0,0,0,0],"id":0,"left_children":[1,3,5,7,9,11,13,15,17,19,21,23,25,27,29,31,33,35,37,39,41,43,45,47,49,51,53,55,57,59,61,63,65,67,69,71,73,75,77,79,81,83,85,87,89,91,93,95,97,99,101,103,105,107,109,111,113,115,117,-1,119,121,123,-1,-1,-1,-1,-1,-1,-1,-1,-1,-1,-1,-1,-1,-1,-1,-1,-1,-1,-1,-1,-1,-1,-1,-1,-1,-1,-1,-1,-1,-1,-1,-1,-1,-1,-1,-1,-1,-1,-1,-1,-1,-1,-1,-1,-1,-1,-1,-1,-1,-1,-1,-1,-1,-1,-1,-1,-1,-1,-1,-1,-1,-1],"loss_changes":[2.0287744E5,6.3628906E3,1.3345273E4,4.329707E3,4.3706875E3,7.3823594E3,7.224375E2,9.5702356E2,1.580459E2,3.7618906E3,7.246203E2,4.7793438E3,4.0511206E2,2.232146E2,2.2651344E2,6.736839E2,3.1228882E2,1.6486816E2,1.0631531E2,6.787944E2,2.309125E3,2.1790137E2,5.553738E2,2.5996172E3,1.2834961E3,8.262153E1,1.2286621E2,2.0770721E2,6.670557E1,4.6699005E1,7.883676E1,3.1916025E2,4.1188812E2,6.773639E1,1.5849619E2,1.1493945E2,7.132622E1,5.210457E1,4.4036316E1,1.7917694E2,2.784439E2,1.4346602E3,3.0970703E2,1.2327385E2,1.6424094E2,9.884827E1,4.5072037E1,1.6740703E3,1.129001E3,1.1515352E3,1.8663681E2,3.652388E1,6.8516754E1,7.147411E1,5.2611084E1,8.477121E1,1.4675397E2,2.3666153E1,5.3533203E1,0E0,4.7007244E1,6.590746E1,3.7943207E1,0E0,0E0,0E0,0E0,0E0,0E0,0E0,0E0,0E0,0E0,0E0,0E0,0E0,0E0,0E0,0E0,0E0,0E0,0E0,0E0,0E0,0E0,0E0,0E0,0E0,0E0,0E0,0E0,0E0,0E0,0E0,0E0,0E0,0E0,0E0,0E0,0E0,0E0,0E0,0E0,0E0,0E0,0E0,0E0,0E0,0E0,0E0,0E0,0E0,0E0,0E0,0E0,0E0,0E0,0E0,0E0,0E0,0E0,0E0,0E0,0E0,0E0],"parents":[2147483647,0,0,1,1,2,2,3,3,4,4,5,5,6,6,7,7,8,8,9,9,10,10,11,11,12,12,13,13,14,14,15,15,16,16,17,17,18,18,19,19,20,20,21,21,22,22,23,23,24,24,25,25,26,26,27,27,28,28,29,29,30,30,31,31,32,32,33,33,34,34,35,35,36,36,37,37,38,38,39,39,40,40,41,41,42,42,43,43,44,44,45,45,46,46,47,47,48,48,49,49,50,50,51,51,52,52,53,53,54,54,55,55,56,56,57,57,58,58,60,60,61,61,62,62],"right_children":[2,4,6,8,10,12,14,16,18,20,22,24,26,28,30,32,34,36,38,40,42,44,46,48,50,52,54,56,58,60,62,64,66,68,70,72,74,76,78,80,82,84,86,88,90,92,94,96,98,100,102,104,106,108,110,112,114,116,118,-1,120,122,124,-1,-1,-1,-1,-1,-1,-1,-1,-1,-1,-1,-1,-1,-1,-1,-1,-1,-1,-1,-1,-1,-1,-1,-1,-1,-1,-1,-1,-1,-1,-1,-1,-1,-1,-1,-1,-1,-1,-1,-1,-1,-1,-1,-1,-1,-1,-1,-1,-1,-1,-1,-1,-1,-1,-1,-1,-1,-1,-1,-1,-1,-1],"split_conditions":[4.7777777E0,4E0,1E0,1.2222222E0,5E0,1E0,1E0,1E0,1E0,5E0,1E0,1E0,2E0,1E0,2E0,1E0,9.475E1,1E0,2E0,1E0,1E0,1.7285715E1,2E0,2.3E1,1.43E2,6.9E1,4.4E1,2E0,8.8166664E1,3.677778E1,2E0,2.7166666E1,2.7666666E1,3E0,1E0,9.2E1,1.3E2,3.45E1,8.1E1,4E0,3.6875E0,1E0,1E0,3.1875E0,4.2E1,1.258E2,1.09E2,3.2727273E0,1.43E2,5E0,1.47E2,9.71E1,1E0,9.5E0,1E0,1.04E2,1E0,6.7E1,1E0,-9.8400004E-2,4E0,9.75E1,2.55E0,-2.1850679E-3,-3.9292265E-2,3.1881526E-2,-2.0742366E-2,-7.167557E-2,4.7950864E-2,-3.460991E-2,-4.872236E-3,-7.931219E-3,5.5963684E-2,2.3595987E-2,-9.272727E-2,3.244693E-2,-6.343709E-2,-9.6E-2,2.4803048E-2,8.538178E-3,3.531947E-2,1.1561168E-2,-1.796802E-2,4.7949843E-2,2.5178013E-2,6.0700476E-2,7.653769E-2,1.8447176E-2,-1.5344358E-2,-2.2802787E-2,2.0258887E-2,-7.7382915E-2,-1.6848348E-2,-6.733041E-2,1.7740812E-2,-3.7417874E-2,-7.295035E-2,-5.2586388E-2,-1.2513812E-2,-7.857489E-2,-3.7230544E-2,-6.595275E-3,3.0207733E-2,-4.497017E-3,-3.937247E-2,5.0305486E-2,-4.3124102E-2,6.2323537E-2,-6.684637E-3,5.9986036E-2,3.1600352E-2,1.0394222E-2,-4.410177E-2,4.0320944E-2,-1.5770951E-2,6.859839E-2,-9.0697676E-2,5.993865E-2,2.6784578E-2,3.499874E-2,-5.791189E-2,-4.700929E-2,1.18397E-2,-1.8189678E-2,-8.369767E-2],"split_indices":[13,2,92,11,3,90,102,89,102,37,102,106,33,106,33,106,18,118,82,110,106,16,23,53,50,93,93,33,17,29,84,16,16,2,106,18,4,45,93,36,11,102,90,11,93,17,60,11,62,30,50,18,102,46,102,27,116,44,89,0,49,17,59,0,0,0,0,0,0,0,0,0,0,0,0,0,0,0,0,0,0,0,0,0,0,0,0,0,0,0,0,0,0,0,0,0,0,0,0,0,0,0,0,0,0,0,0,0,0,0,0,0,0,0,0,0,0,0,0,0,0,0,0,0,0],"split_type":[0,0,0,0,0,0,0,0,0,0,0,0,0,0,0,0,0,0,0,0,0,0,0,0,0,0,0,0,0,0,0,0,0,0,0,0,0,0,0,0,0,0,0,0,0,0,0,0,0,0,0,0,0,0,0,0,0,0,0,0,0,0,0,0,0,0,0,0,0,0,0,0,0,0,0,0,0,0,0,0,0,0,0,0,0,0,0,0,0,0,0,0,0,0,0,0,0,0,0,0,0,0,0,0,0,0,0,0,0,0,0,0,0,0,0,0,0,0,0,0,0,0,0,0,0],"sum_hessian":[2.261315E5,1.28975734E5,9.715576E4,1.720552E4,1.1177022E5,9.2661E4,4.494755E3,1.1750531E4,5.4549893E3,1.06214305E5,5.5559146E3,9.0721805E4,1.9391945E3,3.542964E3,9.5179083E2,9.360683E3,2.3898489E3,4.909134E3,5.458552E2,6.267339E3,9.994696E4,4.6709653E3,8.8494965E2,7.242111E4,1.83007E4,4.4583588E2,1.4933586E3,2.1562964E3,1.3866676E3,1.514646E2,8.003263E2,6.5774414E3,2.7832407E3,4.767747E2,1.9130742E3,4.564286E3,3.448477E2,5.1155157E2,3.430365E1,2.9911775E3,3.2761614E3,7.394132E4,2.6005645E4,1.3922458E3,3.2787192E3,5.65382E2,3.1956763E2,5.9706062E4,1.2715047E4,1.673369E4,1.5670099E3,3.2644208E2,1.1939379E2,1.866084E2,1.3067502E3,3.3185303E2,1.8244434E3,1.1934549E1,1.374733E3,6.15E1,8.99646E1,6.9874255E2,1.01583694E2,5.9362666E3,6.411749E2,2.3419768E3,4.4126398E2,4.652865E2,1.1488199E1,1.1965344E3,7.165398E2,7.126825E1,4.493018E3,3.320977E2,1.275E1,4.9786703E2,1.3684549E1,2.4E1,1.030365E1,8.895355E2,2.1016418E3,1.374527E3,1.9016343E3,6.621398E4,7.7273433E3,2.2405125E4,3.60052E3,3.6502042E2,1.0272255E3,2.380011E2,3.0407183E3,4.8636374E2,7.901825E1,1.5434549E1,3.041331E2,3.5261978E3,5.6179863E4,1.0607417E4,2.1076301E3,1.9001631E3,1.4833525E4,1.0572083E3,5.0980157E2,2.1048929E2,1.159528E2,9.559014E1,2.380365E1,5.0756447E1,1.3585194E2,1.1111118E3,1.9563844E2,2.2945389E2,1.0239915E2,1.6997642E3,1.246792E2,2.1845498E0,9.75E0,1.2371011E3,1.3763199E2,1.5922749E1,7.404185E1,5.03573E1,6.4838525E2,6.964915E1,3.193455E1],"tree_param":{"num_deleted":"0","num_feature":"128","num_nodes":"125","size_leaf_vector":"1"}},{"base_weights":[-5.8815504E-6,7.814282E-1,-1.0377971E0,2.4322441E-1,8.6429715E-1,-1.1154441E0,5.6201077E-1,-7.9186186E-2,9.486681E-1,9.0730864E-1,4.2348783E-2,-1.1546993E0,7.1999353E-1,7.595647E-1,-1.7324944E-1,2.2434076E-2,-7.9659003E-1,1.0025548E0,4.6664795E-1,1.9276333E-1,9.5213604E-1,1.9175425E-1,-7.4618953E-1,-1.264609E0,-7.2001547E-1,-7.521133E-2,9.57402E-1,5.676508E-1,1.0575149E0,-1.2367538E0,2.9057011E-2,-1.5598425E-1,4.4262788E-1,-6.48589E-1,-1.3437384E0,1.0508131E0,3.512581E-1,5.7705945E-1,-1.14467E0,5.1998526E-1,-1.0601317E-1,8.6630726E-1,1.1962419E0,-1.2308747E-1,3.2544777E-1,-1.3122752E0,2.5513884E-1,-1.33364E0,-7.922582E-1,-7.9706466E-1,1.0242698E-1,-3.2255888E-1,5.9844476E-1,2.3439525E-1,1.0604461E0,-1.2368992E-1,6.9342643E-1,-1.1150131E0,1.0771527E0,-1.3326992E0,8.187891E-2,1.4317062E-1,-7.500283E-1,-2.3827646E-3,-3.5481643E-2,3.0161217E-2,-4.636431E-3,-5.032788E-2,-1.9326126E-2,-5.473545E-2,-9.285308E-2,-2.225521E-2,5.330633E-2,-2.3108132E-2,3.0156467E-2,3.31924E-2,-2.6987797E-2,-9.1597825E-2,2.3675986E-2,8.111908E-3,3.356498E-2,-2.8087033E-2,3.5702293E-3,4.5579035E-2,2.3923129E-2,5.7719655E-2,7.282023E-2,-1.4032118E-2,2.1830646E-2,-2.167028E-2,1.924828E-2,-7.0288345E-2,1.8785363E-2,-6.423826E-2,1.6858028E-2,-3.4978684E-2,-6.866033E-2,-4.637124E-2,-7.428749E-3,-7.4765466E-2,-3.538161E-2,-6.265892E-3,2.8706953E-2,-4.2732544E-3,-3.743532E-2,4.7846723E-2,-4.1073464E-2,5.932501E-2,-6.3529112E-3,5.7041567E-2,3.0035967E-2,-2.6770523E-2,2.2206645E-2,3.8321923E-2,-1.4989624E-2,6.629991E-2,-8.6749054E-2,5.6996156E-2,2.5459617E-2,-8.991605E-2,-3.894823E-2,-4.4729237E-2,1.1249026E-2,5.4724007E-3,-5.862848E-2],"categories":[],"categories_nodes":[],"categories_segments":[],"categories_sizes":[],"default_left":[0,0,0,0,0,0,0,0,0,0,0,0,0,0,0,0,0,0,0,0,0,0,0,0,0,0,0,0,0,0,0,0,0,0,0,0,0,0,0,0,0,0,0,0,0,0,0,0,0,0,0,0,0,0,0,0,0,0,0,0,0,0,0,0,0,0,0,0,0,0,0,0,0,0,0,0,0,0,0,0,0,0,0,0,0,0,0,0,0,0,0,0,0,0,0,0,0,0,0,0,0,0,0,0,0,0,0,0,0,0,0,0,0,0,0,0,0,0,0,0,0,0,0,0,0],"id":1,"left_children":[1,3,5,7,9,11,13,15,17,19,21,23,25,27,29,31,33,35,37,39,41,43,45,47,49,51,53,55,57,59,61,63,65,67,69,71,73,75,77,79,81,83,85,87,89,91,93,95,97,99,101,103,105,107,109,111,113,115,117,119,-1,121,123,-1,-1,-1,-1,-1,-1,-1,-1,-1,-1,-1,-1,-1,-1,-1,-1,-1,-1,-1,-1,-1,-1,-1,-1,-1,-1,-1,-1,-1,-1,-1,-1,-1,-1,-1,-1,-1,-1,-1,-1,-1,-1,-1,-1,-1,-1,-1,-1,-1,-1,-1,-1,-1,-1,-1,-1,-1,-1,-1,-1,-1,-1],"loss_changes":[1.832503E5,5.7489453E3,1.2057664E4,3.9122832E3,3.9490547E3,6.670508E3,6.5283057E2,8.607322E2,1.3967871E2,3.3998984E3,6.546716E2,4.329086E3,3.661286E2,2.0193713E2,2.0496199E2,7.7544446E2,1.177536E2,1.5213574E2,9.751445E1,6.128018E2,2.0916406E3,1.966755E2,5.0208548E2,2.3576797E3,1.1593145E3,7.462846E1,1.1100183E2,1.8760541E2,6.0354736E1,4.4169495E1,7.133871E1,4.3542792E2,2.6510883E2,1.0795816E2,3.7716797E1,1.039458E2,6.916314E1,4.9806213E1,4.0067596E1,1.6182812E2,2.6499606E2,1.2972305E3,2.811836E2,1.229758E2,1.4828085E2,8.9794556E1,4.091741E1,1.5824219E3,8.025908E2,1.0434473E3,1.6850949E2,3.3015106E1,6.203308E1,6.4697136E1,4.7604126E1,7.804053E1,1.3255469E2,2.1840874E1,4.8425293E1,3.6727814E1,0E0,5.9604176E1,3.7360695E1,0E0,0E0,0E0,0E0,0E0,0E0,0E0,0E0,0E0,0E0,0E0,0E0,0E0,0E0,0E0,0E0,0E0,0E0,0E0,0E0,0E0,0E0,0E0,0E0,0E0,0E0,0E0,0E0,0E0,0E0,0E0,0E0,0E0,0E0,0E0,0E0,0E0,0E0,0E0,0E0,0E0,0E0,0E0,0E0,0E0,0E0,0E0,0E0,0E0,0E0,0E0,0E0,0E0,0E0,0E0,0E0,0E0,0E0,0E0,0E0,0E0,0E0],"parents":[2147483647,0,0,1,1,2,2,3,3,4,4,5,5,6,6,7,7,8,8,9,9,10,10,11,11,12,12,13,13,14,14,15,15,16,16,17,17,18,18,19,19,20,20,21,21,22,22,23,23,24,24,25,25,26,26,27,27,28,28,29,29,30,30,31,31,32,32,33,33,34,34,35,35,36,36,37,37,38,38,39,39,40,40,41,41,42,42,43,43,44,44,45,45,46,46,47,47,48,48,49,49,50,50,51,51,52,52,53,53,54,54,55,55,56,56,57,57,58,58,59,59,61,61,62,62],"right_children":[2,4,6,8,10,12,14,16,18,20,22,24,26,28,30,32,34,36,38,40,42,44,46,48,50,52,54,56,58,60,62,64,66,68,70,72,74,76,78,80,82,84,86,88,90,92,94,96,98,100,102,104,106,108,110,112,114,116,118,120,-1,122,124,-1,-1,-1,-1,-1,-1,-1,-1,-1,-1,-1,-1,-1,-1,-1,-1,-1,-1,-1,-1,-1,-1,-1,-1,-1,-1,-1,-1,-1,-1,-1,-1,-1,-1,-1,-1,-1,-1,-1,-1,-1,-1,-1,-1,-1,-1,-1,-1,-1,-1,-1,-1,-1,-1,-1,-1,-1,-1,-1,-1,-1,-1],"split_conditions":[4.7777777E0,4E0,1E0,1.5E0,5E0,1E0,1E0,2.7857143E1,1E0,5E0,1E0,1E0,2E0,1E0,2E0,1E0,3.2E1,1E0,2E0,1E0,1E0,1.7285715E1,2E0,3E1,1.43E2,6.9E1,4.4E1,2E0,8.8166664E1,8.5E1,2E0,1E0,1E0,9.6166664E1,9.685714E1,9.1333336E1,4.7E1,3.21E1,8.1E1,4E0,3E0,1E0,1E0,1E0,4.2E1,1.3516667E2,1.09E2,3.2222223E0,1.43E2,5E0,1.47E2,9.71E1,1E0,9.5E0,1E0,2.0666666E1,1E0,6.7E1,1E0,7E1,8.187891E-2,9.75E1,8.5E1,-2.3827646E-3,-3.5481643E-2,3.0161217E-2,-4.636431E-3,-5.032788E-2,-1.9326126E-2,-5.473545E-2,-9.285308E-2,-2.225521E-2,5.330633E-2,-2.3108132E-2,3.0156467E-2,3.31924E-2,-2.6987797E-2,-9.1597825E-2,2.3675986E-2,8.111908E-3,3.356498E-2,-2.8087033E-2,3.5702293E-3,4.5579035E-2,2.3923129E-2,5.7719655E-2,7.282023E-2,-1.4032118E-2,2.1830646E-2,-2.167028E-2,1.924828E-2,-7.0288345E-2,1.8785363E-2,-6.423826E-2,1.6858028E-2,-3.4978684E-2,-6.866033E-2,-4.637124E-2,-7.428749E-3,-7.4765466E-2,-3.538161E-2,-6.265892E-3,2.8706953E-2,-4.2732544E-3,-3.743532E-2,4.7846723E-2,-4.1073464E-2,5.932501E-2,-6.3529112E-3,5.7041567E-2,3.0035967E-2,-2.6770523E-2,2.2206645E-2,3.8321923E-2,-1.4989624E-2,6.629991E-2,-8.6749054E-2,5.6996156E-2,2.5459617E-2,-8.991605E-2,-3.894823E-2,-4.4729237E-2,1.1249026E-2,5.4724007E-3,-5.862848E-2],"split_indices":[13,2,92,11,3,90,102,16,102,37,102,106,33,106,33,106,26,118,82,110,106,16,23,53,50,93,93,33,17,10,84,89,89,18,14,18,93,57,93,36,30,102,90,106,93,17,60,11,62,30,50,18,102,46,102,16,116,44,89,93,0,17,27,0,0,0,0,0,0,0,0,0,0,0,0,0,0,0,0,0,0,0,0,0,0,0,0,0,0,0,0,0,0,0,0,0,0,0,0,0,0,0,0,0,0,0,0,0,0,0,0,0,0,0,0,0,0,0,0,0,0,0,0,0,0],"split_type":[0,0,0,0,0,0,0,0,0,0,0,0,0,0,0,0,0,0,0,0,0,0,0,0,0,0,0,0,0,0,0,0,0,0,0,0,0,0,0,0,0,0,0,0,0,0,0,0,0,0,0,0,0,0,0,0,0,0,0,0,0,0,0,0,0,0,0,0,0,0,0,0,0,0,0,0,0,0,0,0,0,0,0,0,0,0,0,0,0,0,0,0,0,0,0,0,0,0,0,0,0,0,0,0,0,0,0,0,0,0,0,0,0,0,0,0,0,0,0,0,0,0,0,0,0],"sum_hessian":[2.2596361E5,1.28902836E5,9.706078E4,1.7199865E4,1.1170298E5,9.2568266E4,4.492515E3,1.1805333E4,5.3945317E3,1.06148266E5,5.554706E3,9.063028E4,1.9379785E3,3.541052E3,9.5146313E2,1.03414375E4,1.463896E3,4.8511274E3,5.4340424E2,6.266468E3,9.98818E4,4.670531E3,8.8417523E2,7.233778E4,1.8292502E4,4.4571838E2,1.4922601E3,2.155542E3,1.3855099E3,1.5124905E2,8.002141E2,7.259579E3,3.0818582E3,1.1539447E3,3.0995123E2,4.5159043E3,3.3522278E2,5.091574E2,3.4246853E1,2.9905059E3,3.275962E3,7.390205E4,2.5979752E4,1.3921544E3,3.2783765E3,5.64649E2,3.195262E2,6.311249E4,9.225293E3,1.672562E4,1.566882E3,3.2639612E2,1.1932227E2,1.8655762E2,1.3057025E3,3.3179706E2,1.823745E3,1.1911958E1,1.3735979E3,1.4688245E2,4.3666E0,6.98692E2,1.0152207E2,6.0724976E3,1.1870815E3,2.3705984E3,7.1125995E2,4.865301E2,6.674146E2,2.108121E2,9.913912E1,4.5475685E1,4.4704287E3,7.9060646E1,2.5616214E2,4.7281982E2,3.6337574E1,2.394479E1,1.0302065E1,8.895193E2,2.1009866E3,9.1737164E2,2.3585903E3,6.617593E4,7.7261187E3,2.23845E4,3.5952524E3,1.0867378E3,3.0541663E2,2.3797015E2,3.0404062E3,5.351747E2,2.9474308E1,1.541707E1,3.0410916E2,3.7080747E3,5.9404414E4,7.623912E3,1.6013807E3,1.8972333E3,1.4828386E4,1.0571968E3,5.0968527E2,2.1048824E2,1.1590787E2,9.5529686E1,2.3792587E1,5.070719E1,1.3585043E2,1.1101129E3,1.955896E2,1.9236958E2,1.3942747E2,1.6990735E3,1.2467144E2,2.1819818E0,9.729976E0,1.2359906E3,1.3760732E2,7.856851E1,6.831394E1,5.032949E1,6.4836255E2,3.3704967E1,6.78171E1],"tree_param":{"num_deleted":"0","num_feature":"128","num_nodes":"125","size_leaf_vector":"1"}},{"base_weights":[-2.0021535E-5,7.430466E-1,-9.8939586E-1,2.3126373E-1,8.2185525E-1,-1.0635352E0,5.3463876E-1,-7.7673174E-2,8.9800733E-1,8.6348665E-1,3.8240504E-2,-1.1010131E0,6.8565327E-1,7.227151E-1,-1.6488758E-1,5.3301815E-2,-5.909278E-1,7.681103E-1,1.0977639E0,1.8319511E-1,9.062284E-1,1.7784178E-1,-7.1175396E-1,-1.2065487E0,-6.848888E-1,-7.157957E-2,9.120623E-1,5.3979886E-1,1.0070947E0,-1.1793555E0,2.749956E-2,-1.051027E-1,4.2785797E-1,-1.274535E0,-4.20332E-1,7.1504116E-1,1.2144866E0,-6.294446E-1,1.1237396E0,4.9431995E-1,-1.0072975E-1,8.2424927E-1,1.1396899E0,-1.3412596E-1,3.0366746E-1,-1.2512944E0,2.3738211E-1,-1.2872428E0,-8.2865816E-1,-8.001269E-1,-1.5046781E-1,-3.0668548E-1,5.6955326E-1,2.2314663E-1,1.0104123E0,-1.17545E-1,6.594931E-1,-1.0662559E0,1.0257849E0,-9.09346E-2,-7.2856987E-1,1.3598995E-1,-7.1398747E-1,-1.9567343E-3,-3.5784923E-2,2.8809397E-2,-1.794505E-2,-6.6563256E-2,4.699097E-2,-1.2809333E-2,-4.3730658E-2,3.8267642E-2,1.4161701E-2,6.7116156E-2,1.5585671E-2,-7.688904E-2,5.5123728E-2,-9.139233E-2,5.668502E-2,-2.7365241E-2,2.7157499E-2,1.1126751E-2,-1.672099E-2,4.3371584E-2,2.2737458E-2,5.7663348E-2,1.9251226E-2,1.635184E-2,-1.4824505E-2,3.4983363E-2,1.0383706E-2,-7.040954E-2,-1.4204951E-2,1.8244805E-2,-3.329177E-2,-7.961093E-2,-6.04085E-2,-4.6058502E-2,2.5934E-4,-6.0771383E-2,-3.419579E-2,-1.3999486E-2,3.2287564E-2,-2.075039E-2,3.1118954E-2,4.5561012E-2,-3.9152846E-2,5.6570705E-2,-6.0377824E-3,5.4368116E-2,2.8562143E-2,1.0104335E-2,-4.1464698E-2,3.6449414E-2,-1.4248626E-2,6.417816E-2,-8.3263084E-2,5.4288287E-2,2.4208196E-2,-6.6719115E-2,2.1515263E-3,2.5639853E-2,-4.1044303E-3,-1.5442406E-2,-7.8183286E-2],"categories":[],"categories_nodes":[],"categories_segments":[],"categories_sizes":[],"default_left":[0,0,0,0,0,0,0,0,0,0,0,0,0,0,0,0,0,0,0,0,0,0,0,0,0,0,0,0,0,0,0,0,0,0,0,0,0,0,0,0,0,0,0,0,0,0,0,0,0,0,0,0,0,0,0,0,0,0,0,0,0,0,0,0,0,0,0,0,0,0,0,0,0,0,0,0,0,0,0,0,0,0,0,0,0,0,0,0,0,0,0,0,0,0,0,0,0,0,0,0,0,0,0,0,0,0,0,0,0,0,0,0,0,0,0,0,0,0,0,0,0,0,0,0,0],"id":2,"left_children":[1,3,5,7,9,11,13,15,17,19,21,23,25,27,29,31,33,35,37,39,41,43,45,47,49,51,53,55,57,59,61,63,65,67,69,71,73,75,77,79,81,83,85,87,89,91,93,95,97,99,101,103,105,107,109,111,113,115,117,-1,119,121,123,-1,-1,-1,-1,-1,-1,-1,-1,-1,-1,-1,-1,-1,-1,-1,-1,-1,-1,-1,-1,-1,-1,-1,-1,-1,-1,-1,-1,-1,-1,-1,-1,-1,-1,-1,-1,-1,-1,-1,-1,-1,-1,-1,-1,-1,-1,-1,-1,-1,-1,-1,-1,-1,-1,-1,-1,-1,-1,-1,-1,-1,-1],"loss_changes":[1.6577981E5,5.1938438E3,1.0928922E4,3.540008E3,3.6405078E3,6.047133E3,5.9050854E2,7.8957043E2,1.4035693E2,3.0809531E3,5.896594E2,3.9647031E3,3.3186572E2,1.8343188E2,1.8577095E2,5.5527325E2,2.779416E2,7.732312E1,9.68064E1,5.535019E2,1.9072266E3,1.864116E2,4.5289014E2,2.1953516E3,1.1250684E3,6.7460724E1,1.00724976E2,1.695954E2,5.4696777E1,4.2404358E1,6.4528244E1,2.649129E2,3.248159E2,6.1097168E1,1.4238687E2,6.3926025E1,3.9893005E1,5.262897E1,6.412207E1,1.5235712E2,2.4760678E2,1.1770391E3,2.6501172E2,1.023236E2,1.2847662E2,8.5132935E1,3.7231514E1,1.429375E3,9.779336E2,7.2451855E2,3.3452753E2,3.319395E1,5.622688E1,5.867678E1,4.3430054E1,7.586251E1,1.198479E2,2.0222149E1,4.4027466E1,0E0,4.2433952E1,5.7526627E1,3.476413E1,0E0,0E0,0E0,0E0,0E0,0E0,0E0,0E0,0E0,0E0,0E0,0E0,0E0,0E0,0E0,0E0,0E0,0E0,0E0,0E0,0E0,0E0,0E0,0E0,0E0,0E0,0E0,0E0,0E0,0E0,0E0,0E0,0E0,0E0,0E0,0E0,0E0,0E0,0E0,0E0,0E0,0E0,0E0,0E0,0E0,0E0,0E0,0E0,0E0,0E0,0E0,0E0,0E0,0E0,0E0,0E0,0E0,0E0,0E0,0E0,0E0,0E0],"parents":[2147483647,0,0,1,1,2,2,3,3,4,4,5,5,6,6,7,7,8,8,9,9,10,10,11,11,12,12,13,13,14,14,15,15,16,16,17,17,18,18,19,19,20,20,21,21,22,22,23,23,24,24,25,25,26,26,27,27,28,28,29,29,30,30,31,31,32,32,33,33,34,34,35,35,36,36,37,37,38,38,39,39,40,40,41,41,42,42,43,43,44,44,45,45,46,46,47,47,48,48,49,49,50,50,51,51,52,52,53,53,54,54,55,55,56,56,57,57,58,58,60,60,61,61,62,62],"right_children":[2,4,6,8,10,12,14,16,18,20,22,24,26,28,30,32,34,36,38,40,42,44,46,48,50,52,54,56,58,60,62,64,66,68,70,72,74,76,78,80,82,84,86,88,90,92,94,96,98,100,102,104,106,108,110,112,114,116,118,-1,120,122,124,-1,-1,-1,-1,-1,-1,-1,-1,-1,-1,-1,-1,-1,-1,-1,-1,-1,-1,-1,-1,-1,-1,-1,-1,-1,-1,-1,-1,-1,-1,-1,-1,-1,-1,-1,-1,-1,-1,-1,-1,-1,-1,-1,-1,-1,-1,-1,-1,-1,-1,-1,-1,-1,-1,-1,-1,-1,-1,-1,-1,-1,-1],"split_conditions":[4.888889E0,4E0,1E0,1.2222222E0,5E0,1E0,1E0,1E0,1E0,5E0,1E0,1E0,2E0,1E0,2E0,1E0,9.475E1,1E0,8.8E1,1E0,1E0,1.7166666E1,2E0,2.3E1,1.5E0,6.9E1,4.4E1,2E0,8.8166664E1,3.677778E1,2E0,2.7166666E1,2.7666666E1,3E0,2.5833334E1,1E0,2.5272728E1,1.02E1,5.6333332E1,6.4166664E1,3.6875E0,1E0,1E0,3.1875E0,5.8461537E0,1.258E2,9.825E1,5E0,1.45E2,6E0,2.4E0,3.7566666E1,1E0,9.5E0,1E0,1.04E2,1E0,6.7E1,1E0,-9.09346E-2,7E1,9.4E0,2.55E0,-1.9567343E-3,-3.5784923E-2,2.8809397E-2,-1.794505E-2,-6.6563256E-2,4.699097E-2,-1.2809333E-2,-4.3730658E-2,3.8267642E-2,1.4161701E-2,6.7116156E-2,1.5585671E-2,-7.688904E-2,5.5123728E-2,-9.139233E-2,5.668502E-2,-2.7365241E-2,2.7157499E-2,1.1126751E-2,-1.672099E-2,4.3371584E-2,2.2737458E-2,5.7663348E-2,1.9251226E-2,1.635184E-2,-1.4824505E-2,3.4983363E-2,1.0383706E-2,-7.040954E-2,-1.4204951E-2,1.8244805E-2,-3.329177E-2,-7.961093E-2,-6.04085E-2,-4.6058502E-2,2.5934E-4,-6.0771383E-2,-3.419579E-2,-1.3999486E-2,3.2287564E-2,-2.075039E-2,3.1118954E-2,4.5561012E-2,-3.9152846E-2,5.6570705E-2,-6.0377824E-3,5.4368116E-2,2.8562143E-2,1.0104335E-2,-4.1464698E-2,3.6449414E-2,-1.4248626E-2,6.417816E-2,-8.3263084E-2,5.4288287E-2,2.4208196E-2,-6.6719115E-2,2.1515263E-3,2.5639853E-2,-4.1044303E-3,-1.5442406E-2,-7.8183286E-2],"split_indices":[13,2,92,11,3,90,102,89,106,37,102,106,33,106,33,106,18,90,28,110,106,16,23,53,43,93,93,33,17,29,84,16,16,2,16,118,16,46,15,15,11,102,96,11,12,17,18,37,50,30,59,19,102,46,102,27,116,44,89,0,93,46,59,0,0,0,0,0,0,0,0,0,0,0,0,0,0,0,0,0,0,0,0,0,0,0,0,0,0,0,0,0,0,0,0,0,0,0,0,0,0,0,0,0,0,0,0,0,0,0,0,0,0,0,0,0,0,0,0,0,0,0,0,0,0],"split_type":[0,0,0,0,0,0,0,0,0,0,0,0,0,0,0,0,0,0,0,0,0,0,0,0,0,0,0,0,0,0,0,0,0,0,0,0,0,0,0,0,0,0,0,0,0,0,0,0,0,0,0,0,0,0,0,0,0,0,0,0,0,0,0,0,0,0,0,0,0,0,0,0,0,0,0,0,0,0,0,0,0,0,0,0,0,0,0,0,0,0,0,0,0,0,0,0,0,0,0,0,0,0,0,0,0,0,0,0,0,0,0,0,0,0,0,0,0,0,0,0,0,0,0,0,0],"sum_hessian":[2.2549595E5,1.28778016E5,9.671794E4,1.7184693E4,1.1159332E5,9.223148E4,4.486458E3,1.174398E4,5.440712E3,1.0596364E5,5.629676E3,9.029716E4,1.9343241E3,3.5357852E3,9.5067267E2,9.357087E3,2.386894E3,3.299784E3,2.1409282E3,6.2643003E3,9.969934E4,4.746873E3,8.8280304E2,7.202785E4,1.82693E4,4.4538898E2,1.488935E3,2.1535168E3,1.3822681E3,1.507308E2,7.999419E2,6.576515E3,2.7805718E3,4.754024E2,1.9114916E3,2.9514873E3,3.4829657E2,3.137652E1,2.1095515E3,2.9886245E3,3.2756755E3,7.379207E4,2.5907273E4,1.3642739E3,3.382599E3,5.626461E2,3.2015692E2,5.9351617E4,1.2676235E4,1.5028239E4,3.2410618E3,3.2626718E2,1.19121796E2,1.864153E2,1.3025198E3,3.3172855E2,1.8217885E3,1.1848292E1,1.3704198E3,6.1075165E1,8.965563E1,6.9855035E2,1.0139154E2,5.9362354E3,6.4027954E2,2.3397244E3,4.4084735E2,4.6391602E2,1.1486383E1,1.4052843E3,5.0620728E2,2.642792E3,3.0869525E2,3.046675E2,4.3629074E1,2.0655478E1,1.0721043E1,6.481324E0,2.1030703E3,1.333719E2,2.8552527E3,1.3744453E3,1.9012303E3,6.606938E4,7.722688E3,2.5448902E4,4.5837234E2,3.5498785E2,1.009286E3,6.587557E2,2.7238435E3,4.8372183E2,7.89243E1,2.810719E2,3.9085022E1,1.221612E4,4.71355E4,1.1410212E4,1.2660232E3,3.2837466E3,1.1744493E4,2.7881572E3,4.5290445E2,2.926944E2,3.357279E1,9.536028E1,2.3761513E1,5.056913E1,1.3584618E2,1.107067E3,1.9545274E2,2.2941782E2,1.0231072E2,1.6971387E3,1.24649704E2,2.1746416E0,9.673651E0,1.2328817E3,1.3753812E2,4.9814796E1,3.984084E1,2.5558548E2,4.4296487E2,6.957881E1,3.181273E1],"tree_param":{"num_deleted":"0","num_feature":"128","num_nodes":"125","size_leaf_vector":"1"}},{"base_weights":[-3.9743478E-5,7.076592E-1,-9.439681E-1,2.2000685E-1,7.828475E-1,-1.0148026E0,5.089561E-1,-7.1672894E-2,8.6060697E-1,8.2258236E-1,3.633229E-2,-1.0506002E0,6.532606E-1,6.882377E-1,-1.5711127E-1,5.217078E-2,-5.5779916E-1,9.118329E-1,4.0365246E-1,1.7412685E-1,8.6341864E-1,1.6900977E-1,-6.7886484E-1,-1.152059E0,-6.51828E-1,-6.802076E-2,8.694035E-1,5.1358855E-1,9.6034807E-1,-1.1278064E0,2.6036765E-2,-9.894248E-2,4.1053358E-1,-1.2177551E0,-3.9430028E-1,9.5618045E-1,3.1600785E-1,5.0883776E-1,-1.1306465E0,4.7000957E-1,-9.571458E-2,7.8489196E-1,1.0874959E0,-1.2744671E-1,2.8859153E-1,-1.1957E0,2.2553018E-1,-1.229752E0,-7.8928524E-1,-7.2478974E-1,1.24711335E-1,-2.9142773E-1,5.425691E-1,2.125388E-1,9.6339417E-1,-1.11828305E-1,6.275998E-1,-8.15128E-2,9.7410566E-1,-1.2209383E0,8.1260204E-2,1.2923713E-1,-6.80808E-1,-1.7886385E-3,-3.4294818E-2,2.7587367E-2,-1.7060058E-2,-6.360269E-2,4.487365E-2,-2.9829456E-2,-2.800325E-3,-2.192735E-2,4.8526492E-2,2.2794615E-2,-5.4305684E-2,2.9583374E-2,-2.7663488E-2,-8.9388184E-2,2.0887678E-2,6.450941E-3,3.0722946E-2,1.878061E-2,-1.2476542E-2,3.6907073E-2,5.535477E-2,5.2354176E-2,6.696748E-2,1.5538928E-2,-1.4087396E-2,-2.2044577E-2,1.6939307E-2,-6.733685E-2,-1.3509512E-2,-6.184417E-2,1.5156748E-2,-3.1112546E-2,-6.3393965E-2,-4.388247E-2,2.4639198E-4,-3.986646E-2,1.9757785E-3,-4.5541166E-3,2.8572245E-2,-1.7913671E-2,5.7880044E-2,4.342758E-2,-3.734872E-2,5.4026287E-2,-5.738379E-3,5.1859498E-2,2.7171304E-2,-2.5071356E-2,2.1259956E-2,3.277351E-2,-7.947072E-2,5.1626455E-2,2.2464462E-2,-8.277894E-2,-3.541122E-2,-4.2937133E-2,1.0352681E-2,6.9737323E-3,-5.4290235E-2],"categories":[],"categories_nodes":[],"categories_segments":[],"categories_sizes":[],"default_left":[0,0,0,0,0,0,0,0,0,0,0,0,0,0,0,0,0,0,0,0,0,0,0,0,0,0,0,0,0,0,0,0,0,0,0,0,0,0,0,0,0,0,0,0,0,0,0,0,0,0,0,0,0,0,0,0,0,0,0,0,0,0,0,0,0,0,0,0,0,0,0,0,0,0,0,0,0,0,0,0,0,0,0,0,0,0,0,0,0,0,0,0,0,0,0,0,0,0,0,0,0,0,0,0,0,0,0,0,0,0,0,0,0,0,0,0,0,0,0,0,0,0,0],"id":3,"left_children":[1,3,5,7,9,11,13,15,17,19,21,23,25,27,29,31,33,35,37,39,41,43,45,47,49,51,53,55,57,59,61,63,65,67,69,71,73,75,77,79,81,83,85,87,89,91,93,95,97,99,101,103,105,107,109,111,113,-1,115,117,-1,119,121,-1,-1,-1,-1,-1,-1,-1,-1,-1,-1,-1,-1,-1,-1,-1,-1,-1,-1,-1,-1,-1,-1,-1,-1,-1,-1,-1,-1,-1,-1,-1,-1,-1,-1,-1,-1,-1,-1,-1,-1,-1,-1,-1,-1,-1,-1,-1,-1,-1,-1,-1,-1,-1,-1,-1,-1,-1,-1,-1,-1],"loss_changes":[1.5015962E5,4.7101836E3,9.913164E3,3.2069668E3,3.301586E3,5.4846797E3,5.3485583E2,7.1008154E2,1.25328125E2,2.7983125E3,5.33979E2,3.6369297E3,3.0096777E2,1.6719849E2,1.6901587E2,5.0910873E2,2.5791132E2,1.2726221E2,8.8221634E1,5.0002414E2,1.7485391E3,1.6830466E2,4.1187604E2,2.0191406E3,1.0334302E3,6.099184E1,9.1489136E1,1.5346924E2,5.0709595E1,4.0673782E1,5.849147E1,2.4517253E2,2.9619464E2,5.5696472E1,1.3140549E2,9.03418E1,6.638299E1,4.5100204E1,3.651478E1,1.4705383E2,2.3759886E2,1.1081758E3,2.611582E2,9.2386024E1,1.2400464E2,7.798859E1,3.6813194E1,1.3664688E3,8.874365E2,9.2436426E2,1.5114342E2,3.2102978E1,5.1013817E1,5.3305702E1,3.9694214E1,6.979267E1,1.13483154E2,0E0,4.1591797E1,3.1481705E1,0E0,5.3954006E1,3.409047E1,0E0,0E0,0E0,0E0,0E0,0E0,0E0,0E0,0E0,0E0,0E0,0E0,0E0,0E0,0E0,0E0,0E0,0E0,0E0,0E0,0E0,0E0,0E0,0E0,0E0,0E0,0E0,0E0,0E0,0E0,0E0,0E0,0E0,0E0,0E0,0E0,0E0,0E0,0E0,0E0,0E0,0E0,0E0,0E0,0E0,0E0,0E0,0E0,0E0,0E0,0E0,0E0,0E0,0E0,0E0,0E0,0E0,0E0,0E0,0E0],"parents":[2147483647,0,0,1,1,2,2,3,3,4,4,5,5,6,6,7,7,8,8,9,9,10,10,11,11,12,12,13,13,14,14,15,15,16,16,17,17,18,18,19,19,20,20,21,21,22,22,23,23,24,24,25,25,26,26,27,27,28,28,29,29,30,30,31,31,32,32,33,33,34,34,35,35,36,36,37,37,38,38,39,39,40,40,41,41,42,42,43,43,44,44,45,45,46,46,47,47,48,48,49,49,50,50,51,51,52,52,53,53,54,54,55,55,56,56,58,58,59,59,61,61,62,62],"right_children":[2,4,6,8,10,12,14,16,18,20,22,24,26,28,30,32,34,36,38,40,42,44,46,48,50,52,54,56,58,60,62,64,66,68,70,72,74,76,78,80,82,84,86,88,90,92,94,96,98,100,102,104,106,108,110,112,114,-1,116,118,-1,120,122,-1,-1,-1,-1,-1,-1,-1,-1,-1,-1,-1,-1,-1,-1,-1,-1,-1,-1,-1,-1,-1,-1,-1,-1,-1,-1,-1,-1,-1,-1,-1,-1,-1,-1,-1,-1,-1,-1,-1,-1,-1,-1,-1,-1,-1,-1,-1,-1,-1,-1,-1,-1,-1,-1,-1,-1,-1,-1,-1,-1],"split_conditions":[4.888889E0,4E0,1E0,1.5E0,5E0,1E0,1E0,1E0,1E0,5E0,1E0,1E0,2E0,1E0,2E0,1E0,9.475E1,1E0,2E0,1E0,1E0,1.7166666E1,2E0,2.3E1,1.43E2,6.9E1,4.4E1,2E0,5.7E1,8.5E1,2E0,2.7166666E1,2.7666666E1,3E0,1E0,9.1333336E1,1.23E2,3.21E1,8.1E1,4E0,5.769231E0,1E0,1E0,3.1875E0,4E1,1.258E2,1.09E2,3.2727273E0,1.45E2,1.8E0,1.47E2,1.23E2,1E0,9.5E0,1E0,2.0666666E1,2.9E1,-8.15128E-2,1E0,7E1,8.1260204E-2,9.75E1,8.5E1,-1.7886385E-3,-3.4294818E-2,2.7587367E-2,-1.7060058E-2,-6.360269E-2,4.487365E-2,-2.9829456E-2,-2.800325E-3,-2.192735E-2,4.8526492E-2,2.2794615E-2,-5.4305684E-2,2.9583374E-2,-2.7663488E-2,-8.9388184E-2,2.0887678E-2,6.450941E-3,3.0722946E-2,1.878061E-2,-1.2476542E-2,3.6907073E-2,5.535477E-2,5.2354176E-2,6.696748E-2,1.5538928E-2,-1.4087396E-2,-2.2044577E-2,1.6939307E-2,-6.733685E-2,-1.3509512E-2,-6.184417E-2,1.5156748E-2,-3.1112546E-2,-6.3393965E-2,-4.388247E-2,2.4639198E-4,-3.986646E-2,1.9757785E-3,-4.5541166E-3,2.8572245E-2,-1.7913671E-2,5.7880044E-2,4.342758E-2,-3.734872E-2,5.4026287E-2,-5.738379E-3,5.1859498E-2,2.7171304E-2,-2.5071356E-2,2.1259956E-2,3.277351E-2,-7.947072E-2,5.1626455E-2,2.2464462E-2,-8.277894E-2,-3.541122E-2,-4.2937133E-2,1.0352681E-2,6.9737323E-3,-5.4290235E-2],"split_indices":[13,2,92,11,3,90,102,89,102,37,102,106,33,106,33,106,18,118,82,110,106,16,23,53,50,93,93,33,27,10,84,16,16,2,106,18,4,57,93,36,12,90,90,11,93,17,60,11,50,59,50,14,102,46,102,16,26,0,89,93,0,17,27,0,0,0,0,0,0,0,0,0,0,0,0,0,0,0,0,0,0,0,0,0,0,0,0,0,0,0,0,0,0,0,0,0,0,0,0,0,0,0,0,0,0,0,0,0,0,0,0,0,0,0,0,0,0,0,0,0,0,0,0],"split_type":[0,0,0,0,0,0,0,0,0,0,0,0,0,0,0,0,0,0,0,0,0,0,0,0,0,0,0,0,0,0,0,0,0,0,0,0,0,0,0,0,0,0,0,0,0,0,0,0,0,0,0,0,0,0,0,0,0,0,0,0,0,0,0,0,0,0,0,0,0,0,0,0,0,0,0,0,0,0,0,0,0,0,0,0,0,0,0,0,0,0,0,0,0,0,0,0,0,0,0,0,0,0,0,0,0,0,0,0,0,0,0,0,0,0,0,0,0,0,0,0,0,0,0],"sum_hessian":[2.247821E5,1.284663E5,9.6315805E4,1.7161984E4,1.1130431E5,9.183869E4,4.477112E3,1.1793173E4,5.3688105E3,1.0567921E5,5.625106E3,8.990955E4,1.9291416E3,3.5275798E3,9.495323E2,9.399488E3,2.393685E3,4.8267246E3,5.42086E2,6.2611523E3,9.9418055E4,4.74552E3,8.795861E2,7.167225E4,1.8237299E4,4.4496222E2,1.4841794E3,2.1503215E3,1.3772583E3,1.498993E2,7.9963293E2,6.61206E3,2.7874282E3,4.7399158E2,1.9196934E3,4.491794E3,3.349311E2,5.0793253E2,3.415344E1,2.9861165E3,3.2750361E3,7.362208E4,2.5795975E4,1.3639846E3,3.3815354E3,5.5951666E2,3.2006943E2,5.9028164E4,1.2644086E4,1.6670998E4,1.566301E3,3.2615063E2,1.188116E2,1.8619513E2,1.2979843E3,3.3155768E2,1.8187638E3,6.6546855E0,1.3706036E3,1.455326E2,4.366728E0,6.9847217E2,1.011608E2,5.9705527E3,6.4150757E2,2.346839E3,4.405889E2,4.625172E2,1.14743805E1,1.2008563E3,7.188371E2,4.5441177E1,4.4463525E3,3.0516116E2,2.9769936E1,4.7159738E2,3.633514E1,2.3869148E1,1.0284289E1,8.8912317E2,2.0969932E3,8.054669E2,2.4695693E3,6.4296234E4,9.325847E3,2.2233535E4,3.5624395E3,3.5493436E2,1.00905023E3,2.1719754E2,3.1643376E3,4.8062653E2,7.889015E1,1.5376202E1,3.0469324E2,3.4869084E3,5.5541258E4,1.1378058E4,1.2660286E3,1.5225882E4,1.4451156E3,1.0566733E3,5.0962766E2,3.1248788E2,1.3662747E1,9.509827E1,2.3713333E1,5.0355537E1,1.358396E2,1.1027432E3,1.9524106E2,1.9219308E2,1.3936458E2,1.7968794E3,2.1884457E1,1.232439E3,1.3816464E2,7.7556755E1,6.797583E1,5.0264503E1,6.4820764E2,3.3653805E1,6.750699E1],"tree_param":{"num_deleted":"0","num_feature":"128","num_nodes":"123","size_leaf_vector":"1"}},{"base_weights":[-6.4562555E-5,6.7445254E-1,-9.018385E-1,2.093944E-1,7.4626833E-1,-9.696429E-1,4.8476958E-1,-7.033552E-2,8.162361E-1,7.8424144E-1,3.4509934E-2,-1.0038947E0,6.2293833E-1,6.5574384E-1,-1.4967796E-1,2.6279459E-2,-6.444865E-1,6.9462883E-1,1.0037725E0,1.6554391E-1,8.2332003E-1,1.6063203E-1,-6.4836067E-1,-1.101793E0,-6.207218E-1,-6.458751E-2,8.295665E-1,4.8875558E-1,9.166769E-1,-1.0796001E0,2.4639383E-2,-1.2853439E-1,3.9525118E-1,-9.6514964E-1,-4.0632525E-1,5.4203004E-1,8.450956E-1,-6.1596566E-1,1.0282859E0,4.470815E-1,-9.094106E-2,7.479E-1,1.0391135E0,-4.5028886E-1,2.1760808E-1,-1.1446129E0,2.1423575E-1,-1.455339E0,-1.0234762E0,-7.290741E-1,-1.1967098E-1,-2.768695E-1,5.172808E-1,2.0251717E-1,9.1956085E-1,-1.0630712E-1,5.973881E-1,-1.0205097E0,9.3409365E-1,-1.4682294E0,-3.885523E-1,1.2276682E-1,-6.4908713E-1,-1.769509E-3,-3.074776E-2,2.6230583E-2,-1.9135909E-3,2.9977769E-2,-5.1932033E-2,-1.3390617E-2,-5.4898348E-2,3.1410586E-2,2.4951615E-3,3.9327774E-2,6.41594E-2,-7.3866166E-2,5.165712E-2,-8.929096E-2,5.1894903E-2,-2.748631E-2,2.4690464E-2,-2.596241E-2,3.7849117E-3,4.4787884E-2,3.2286286E-2,5.2611083E-2,1.5681565E-2,4.4707046E-3,-3.435449E-2,-2.4246987E-2,1.3237632E-2,-6.1542656E-2,1.9218909E-2,1.677299E-2,-3.217995E-2,-7.345014E-2,-1.0197138E-2,-5.3271294E-2,-1.7134622E-2,-2.4624761E-2,-4.6194248E-2,-1.2168466E-2,3.13936E-2,-1.7988954E-2,4.3017156E-2,4.142915E-2,-3.5649564E-2,-1.8646816E-2,3.4030255E-2,4.9526885E-2,2.5856799E-2,9.807083E-3,-3.9056603E-2,3.3170473E-2,-1.4811463E-2,6.0691632E-2,-7.954687E-2,4.7650125E-2,-2.9052196E-2,-2.0898512E-2,-8.120035E-2,-5.5763133E-2,1.661392E-2,2.4061207E-2,-4.2288913E-3,-1.3021516E-2,-7.3565416E-2],"categories":[],"categories_nodes":[],"categories_segments":[],"categories_sizes":[],"default_left":[0,0,0,0,0,0,0,0,0,0,0,0,0,0,0,0,0,0,0,0,0,0,0,0,0,0,0,0,0,0,0,0,0,0,0,0,0,0,0,0,0,0,0,0,0,0,0,0,0,0,0,0,0,0,0,0,0,0,0,0,0,0,0,0,0,0,0,0,0,0,0,0,0,0,0,0,0,0,0,0,0,0,0,0,0,0,0,0,0,0,0,0,0,0,0,0,0,0,0,0,0,0,0,0,0,0,0,0,0,0,0,0,0,0,0,0,0,0,0,0,0,0,0,0,0,0,0],"id":4,"left_children":[1,3,5,7,9,11,13,15,17,19,21,23,25,27,29,31,33,35,37,39,41,43,45,47,49,51,53,55,57,59,61,63,65,67,69,71,73,75,77,79,81,83,85,87,89,91,93,95,97,99,101,103,105,107,109,111,113,115,117,119,121,123,125,-1,-1,-1,-1,-1,-1,-1,-1,-1,-1,-1,-1,-1,-1,-1,-1,-1,-1,-1,-1,-1,-1,-1,-1,-1,-1,-1,-1,-1,-1,-1,-1,-1,-1,-1,-1,-1,-1,-1,-1,-1,-1,-1,-1,-1,-1,-1,-1,-1,-1,-1,-1,-1,-1,-1,-1,-1,-1,-1,-1,-1,-1,-1,-1],"loss_changes":[1.3616322E5,4.2770273E3,9.006586E3,2.908279E3,2.998254E3,4.9823203E3,4.8459106E2,6.505652E2,1.22582275E2,2.5461562E3,4.841035E2,3.3530234E3,2.732981E2,1.5286218E2,1.5385205E2,5.735178E2,1.2861462E2,7.491052E1,8.4973145E1,4.5193506E2,1.6114062E3,1.6524083E2,3.7536536E2,1.9701719E3,9.8777246E2,5.5159794E1,8.3275635E1,1.388916E2,4.723987E1,3.9666626E1,5.2976498E1,3.2042764E2,1.6644235E2,8.332477E1,9.273329E1,6.9205536E1,4.133203E1,4.739805E1,5.8464844E1,1.3923816E2,2.338247E2,1.1083984E3,2.4361133E2,5.1828438E1,1.438866E2,7.3845825E1,3.358354E1,2.2046289E2,1.6645508E3,6.890464E2,2.9942688E2,3.1140688E1,4.632269E1,5.1675774E1,3.6422363E1,6.799286E1,1.0734961E2,1.812054E1,3.9522095E1,1.4951447E1,2.9332981E1,5.2011192E1,3.217382E1,0E0,0E0,0E0,0E0,0E0,0E0,0E0,0E0,0E0,0E0,0E0,0E0,0E0,0E0,0E0,0E0,0E0,0E0,0E0,0E0,0E0,0E0,0E0,0E0,0E0,0E0,0E0,0E0,0E0,0E0,0E0,0E0,0E0,0E0,0E0,0E0,0E0,0E0,0E0,0E0,0E0,0E0,0E0,0E0,0E0,0E0,0E0,0E0,0E0,0E0,0E0,0E0,0E0,0E0,0E0,0E0,0E0,0E0,0E0,0E0,0E0,0E0,0E0,0E0],"parents":[2147483647,0,0,1,1,2,2,3,3,4,4,5,5,6,6,7,7,8,8,9,9,10,10,11,11,12,12,13,13,14,14,15,15,16,16,17,17,18,18,19,19,20,20,21,21,22,22,23,23,24,24,25,25,26,26,27,27,28,28,29,29,30,30,31,31,32,32,33,33,34,34,35,35,36,36,37,37,38,38,39,39,40,40,41,41,42,42,43,43,44,44,45,45,46,46,47,47,48,48,49,49,50,50,51,51,52,52,53,53,54,54,55,55,56,56,57,57,58,58,59,59,60,60,61,61,62,62],"right_children":[2,4,6,8,10,12,14,16,18,20,22,24,26,28,30,32,34,36,38,40,42,44,46,48,50,52,54,56,58,60,62,64,66,68,70,72,74,76,78,80,82,84,86,88,90,92,94,96,98,100,102,104,106,108,110,112,114,116,118,120,122,124,126,-1,-1,-1,-1,-1,-1,-1,-1,-1,-1,-1,-1,-1,-1,-1,-1,-1,-1,-1,-1,-1,-1,-1,-1,-1,-1,-1,-1,-1,-1,-1,-1,-1,-1,-1,-1,-1,-1,-1,-1,-1,-1,-1,-1,-1,-1,-1,-1,-1,-1,-1,-1,-1,-1,-1,-1,-1,-1,-1,-1,-1,-1,-1,-1],"split_conditions":[4.888889E0,4E0,1E0,1.2222222E0,5E0,1E0,1E0,2.7166666E1,1E0,5E0,1E0,1E0,2E0,1E0,2E0,1E0,9.6166664E1,2.5555556E0,8.8E1,1E0,1E0,5E0,2E0,5E0,1.5E0,6.9E1,4.4E1,2E0,8.8166664E1,3.6833332E1,2E0,1E0,1E0,2.8E1,3.2E1,2.5833334E1,1E0,1.02E1,5.6333332E1,6.9E1,3E0,6E0,1E0,8.8E1,3.8E1,1.3516667E2,9.825E1,2E0,1.43E2,5.4E1,1E0,1.8E0,1E0,3.6983334E1,1E0,1.04E2,1E0,6.7E1,3E1,4E0,5.3E1,9.4E0,2.55E0,-1.769509E-3,-3.074776E-2,2.6230583E-2,-1.9135909E-3,2.9977769E-2,-5.1932033E-2,-1.3390617E-2,-5.4898348E-2,3.1410586E-2,2.4951615E-3,3.9327774E-2,6.41594E-2,-7.3866166E-2,5.165712E-2,-8.929096E-2,5.1894903E-2,-2.748631E-2,2.4690464E-2,-2.596241E-2,3.7849117E-3,4.4787884E-2,3.2286286E-2,5.2611083E-2,1.5681565E-2,4.4707046E-3,-3.435449E-2,-2.4246987E-2,1.3237632E-2,-6.1542656E-2,1.9218909E-2,1.677299E-2,-3.217995E-2,-7.345014E-2,-1.0197138E-2,-5.3271294E-2,-1.7134622E-2,-2.4624761E-2,-4.6194248E-2,-1.2168466E-2,3.13936E-2,-1.7988954E-2,4.3017156E-2,4.142915E-2,-3.5649564E-2,-1.8646816E-2,3.4030255E-2,4.9526885E-2,2.5856799E-2,9.807083E-3,-3.9056603E-2,3.3170473E-2,-1.4811463E-2,6.0691632E-2,-7.954687E-2,4.7650125E-2,-2.9052196E-2,-2.0898512E-2,-8.120035E-2,-5.5763133E-2,1.661392E-2,2.4061207E-2,-4.2288913E-3,-1.3021516E-2,-7.3565416E-2],"split_indices":[13,2,92,11,3,90,102,16,106,37,102,106,33,106,33,106,18,11,28,110,106,30,23,37,43,93,93,33,17,29,84,89,89,93,26,16,90,46,15,5,30,2,96,5,93,17,18,83,62,20,91,47,102,19,102,27,116,44,26,49,20,46,59,0,0,0,0,0,0,0,0,0,0,0,0,0,0,0,0,0,0,0,0,0,0,0,0,0,0,0,0,0,0,0,0,0,0,0,0,0,0,0,0,0,0,0,0,0,0,0,0,0,0,0,0,0,0,0,0,0,0,0,0,0,0,0,0],"split_type":[0,0,0,0,0,0,0,0,0,0,0,0,0,0,0,0,0,0,0,0,0,0,0,0,0,0,0,0,0,0,0,0,0,0,0,0,0,0,0,0,0,0,0,0,0,0,0,0,0,0,0,0,0,0,0,0,0,0,0,0,0,0,0,0,0,0,0,0,0,0,0,0,0,0,0,0,0,0,0,0,0,0,0,0,0,0,0,0,0,0,0,0,0,0,0,0,0,0,0,0,0,0,0,0,0,0,0,0,0,0,0,0,0,0,0,0,0,0,0,0,0,0,0,0,0,0,0],"sum_hessian":[2.2385423E5,1.28064E5,9.5790234E4,1.7131203E4,1.109328E5,9.13248E4,4.465434E3,1.1726594E4,5.40461E3,1.0531407E5,5.6187266E3,8.940238E4,1.9224147E3,3.517489E3,9.4794507E2,1.0038349E4,1.6882443E3,3.281462E3,2.1231477E3,6.2570435E3,9.905702E4,4.7434116E3,8.753148E2,7.120742E4,1.819496E4,4.4440558E2,1.4780092E3,2.1466067E3,1.3708823E3,1.4882458E2,7.991205E2,7.071801E3,2.966548E3,7.1819946E2,9.700448E2,1.6314735E3,1.6499884E3,3.1293331E1,2.0918545E3,2.9824902E3,3.2745535E3,7.3406016E4,2.565101E4,4.0405576E2,4.339356E3,5.5544183E2,3.19873E2,1.2910032E4,5.829739E4,1.4959509E4,3.2354507E3,3.259969E2,1.1840871E2,1.8590915E2,1.2921E3,3.313844E2,1.8152223E3,1.1702252E1,1.35918E3,9.4535416E1,5.4289165E1,6.982404E2,1.0088007E2,5.9361636E3,1.1356372E3,2.2846216E3,6.819265E2,3.1897978E1,6.8630145E2,8.093467E2,1.606981E2,1.38811E3,2.4336356E2,1.4579634E3,1.9202495E2,2.0624807E1,1.0668524E1,6.4918327E0,2.0853625E3,1.3306886E2,2.8494214E3,9.165812E2,2.3579722E3,2.999383E4,4.3412188E4,2.5195326E4,4.556829E2,1.2340976E2,2.80646E2,2.7229724E2,4.0670588E3,5.2597034E2,2.94715E1,2.8080084E2,3.9072132E1,1.277042E4,1.39613E2,5.4913105E4,3.3842866E3,6.7571416E3,8.202368E3,2.7766619E3,4.587888E2,3.0448196E2,2.151491E1,9.475807E1,2.3650629E1,8.446376E1,1.0144539E2,1.0971338E3,1.9496622E2,2.2931665E2,1.0206775E2,1.6905784E3,1.2464392E2,2.1505804E0,9.551672E0,1.3427931E3,1.6386942E1,1.2686376E1,8.184904E1,2.6761843E1,2.7527323E1,2.5539421E2,4.4284622E2,6.939459E1,3.1485485E1],"tree_param":{"num_deleted":"0","num_feature":"128","num_nodes":"127","size_leaf_vector":"1"}},{"base_weights":[-9.185412E-5,6.436629E-1,-8.618482E-1,7.0062363E-1,1.0504022E-1,-9.267493E-1,4.6198735E-1,6.465835E-1,1.1225324E0,-3.0477083E-1,3.4912407E-1,-9.595166E-1,5.9399176E-1,6.252218E-1,-1.4273997E-1,3.0758026E-1,7.1135813E-1,1.1312659E0,9.11696E-2,-1.2878741E-1,-6.181819E-1,4.3276212E-1,-4.6758974E-1,-1.0464978E0,-5.5333364E-1,-6.1369468E-2,7.915795E-1,4.653974E-1,8.7577146E-1,-1.0355493E0,2.3328006E-2,-2.8529186E-2,6.3571465E-1,9.0884703E-1,5.5565315E-1,1.2098322E0,1.0335857E0,3.673016E-1,-9.74258E-2,-2.3594224E-1,4.0071464E-1,-1.3546786E0,-5.0923234E-1,2.6274538E-1,7.204134E-1,-1.0216835E0,2.1686065E-1,-1.4004638E0,-9.6437335E-1,-6.915258E-1,3.7197255E-2,-2.6310083E-1,4.935085E-1,1.926064E-1,8.779423E-1,-1.0117406E-1,5.690079E-1,-7.717415E-2,8.8853896E-1,-8.248882E-2,-6.1055565E-1,1.4142142E-1,-5.0784713E-1,7.3051746E-3,-2.900934E-2,3.58904E-2,1.6307497E-2,4.759364E-2,3.1479318E-2,-2.894218E-3,3.105904E-2,5.212739E-2,6.264555E-2,4.7148727E-2,6.165461E-2,2.7770102E-2,-9.686141E-2,-6.8732924E-3,-4.154706E-2,2.7585825E-2,-1.4006044E-2,-1.7928783E-2,-7.679945E-2,-1.7874006E-2,-5.6120373E-2,2.4457099E-2,3.7648708E-3,-5.702501E-2,3.7092585E-2,-5.6782123E-2,1.6812343E-2,-5.862503E-2,1.4423166E-2,-7.062487E-2,-6.2852534E-3,-5.2541967E-2,-3.136433E-2,-3.9046943E-2,-1.7656013E-3,-1.8419683E-2,1.1839542E-2,-1.4461438E-3,-3.3230286E-2,-6.5974654E-3,5.3771675E-2,5.0972987E-2,-5.842746E-3,4.731277E-2,2.4612753E-2,-2.3507643E-2,2.0348685E-2,2.9775335E-2,-7.643684E-2,4.7256358E-2,1.9203857E-2,3.7920885E-2,-4.5802753E-2,-3.8604353E-2,1.1367659E-2,-1.4766461E-2,-7.703938E-2],"categories":[],"categories_nodes":[],"categories_segments":[],"categories_sizes":[],"default_left":[0,0,0,0,0,0,0,0,0,0,0,0,0,0,0,0,0,0,0,0,0,0,0,0,0,0,0,0,0,0,0,0,0,0,0,0,0,0,0,0,0,0,0,0,0,0,0,0,0,0,0,0,0,0,0,0,0,0,0,0,0,0,0,0,0,0,0,0,0,0,0,0,0,0,0,0,0,0,0,0,0,0,0,0,0,0,0,0,0,0,0,0,0,0,0,0,0,0,0,0,0,0,0,0,0,0,0,0,0,0,0,0,0,0,0,0,0,0,0,0,0],"id":5,"left_children":[1,3,5,7,9,11,13,15,17,19,21,23,25,27,29,31,33,35,37,39,41,43,45,47,49,51,53,55,57,59,61,63,65,67,69,71,73,75,-1,77,79,81,83,85,87,89,91,93,95,97,99,101,103,105,107,109,111,-1,113,-1,115,117,119,-1,-1,-1,-1,-1,-1,-1,-1,-1,-1,-1,-1,-1,-1,-1,-1,-1,-1,-1,-1,-1,-1,-1,-1,-1,-1,-1,-1,-1,-1,-1,-1,-1,-1,-1,-1,-1,-1,-1,-1,-1,-1,-1,-1,-1,-1,-1,-1,-1,-1,-1,-1,-1,-1,-1,-1,-1,-1],"loss_changes":[1.23581266E5,3.9120117E3,8.184508E3,2.6284805E3,1.2200662E3,4.525336E3,4.3958325E2,2.2445234E3,1.1782031E2,2.5104587E2,5.223567E2,3.1398672E3,2.4813776E2,1.399906E2,1.4045798E2,1.8088562E3,2.638625E3,9.837695E1,6.324337E1,1.6560577E2,1.306643E2,3.3894604E2,2.6970728E2,2.126789E3,1.2795908E3,4.991295E1,7.5982544E1,1.25842804E2,4.3513184E1,3.777588E1,5.0229237E1,7.807013E2,2.1066846E2,4.5399023E2,1.9294844E3,5.05E1,1.0357568E2,4.3826756E1,0E0,1.420765E2,5.0667953E1,3.7439453E1,1.324422E2,1.8499158E2,1.0359473E2,6.117575E1,3.2045006E1,2.1127539E2,1.7313945E3,7.4550195E2,2.4087292E2,3.0709276E1,4.342812E1,4.791527E1,3.3426086E1,6.2462265E1,1.0161444E2,0E0,3.8398315E1,0E0,3.808338E1,5.1588223E1,3.1518726E1,0E0,0E0,0E0,0E0,0E0,0E0,0E0,0E0,0E0,0E0,0E0,0E0,0E0,0E0,0E0,0E0,0E0,0E0,0E0,0E0,0E0,0E0,0E0,0E0,0E0,0E0,0E0,0E0,0E0,0E0,0E0,0E0,0E0,0E0,0E0,0E0,0E0,0E0,0E0,0E0,0E0,0E0,0E0,0E0,0E0,0E0,0E0,0E0,0E0,0E0,0E0,0E0,0E0,0E0,0E0,0E0,0E0,0E0],"parents":[2147483647,0,0,1,1,2,2,3,3,4,4,5,5,6,6,7,7,8,8,9,9,10,10,11,11,12,12,13,13,14,14,15,15,16,16,17,17,18,18,19,19,20,20,21,21,22,22,23,23,24,24,25,25,26,26,27,27,28,28,29,29,30,30,31,31,32,32,33,33,34,34,35,35,36,36,37,37,39,39,40,40,41,41,42,42,43,43,44,44,45,45,46,46,47,47,48,48,49,49,50,50,51,51,52,52,53,53,54,54,55,55,56,56,58,58,60,60,61,61,62,62],"right_children":[2,4,6,8,10,12,14,16,18,20,22,24,26,28,30,32,34,36,38,40,42,44,46,48,50,52,54,56,58,60,62,64,66,68,70,72,74,76,-1,78,80,82,84,86,88,90,92,94,96,98,100,102,104,106,108,110,112,-1,114,-1,116,118,120,-1,-1,-1,-1,-1,-1,-1,-1,-1,-1,-1,-1,-1,-1,-1,-1,-1,-1,-1,-1,-1,-1,-1,-1,-1,-1,-1,-1,-1,-1,-1,-1,-1,-1,-1,-1,-1,-1,-1,-1,-1,-1,-1,-1,-1,-1,-1,-1,-1,-1,-1,-1,-1,-1,-1,-1,-1,-1],"split_conditions":[4.7777777E0,1E0,1E0,1E0,3E0,1E0,1E0,1.1666666E0,1E0,2E0,5E0,2.5E1,2E0,1E0,2E0,4E0,5.625E0,5.8461537E0,1E0,2E0,1E0,2E0,2E0,5E0,1.43E2,6.9E1,4.4E1,2E0,5.7E1,3.677778E1,3.21E1,2.5833334E1,1E0,1E0,5E0,1.3333334E0,2E0,7.8E1,-9.74258E-2,1E0,7E0,5.4E1,1.375E0,6E0,4E0,1.33E2,1.09E2,2E0,1E0,1E0,2E0,1E0,6.2666668E1,9.5E0,1E0,2.0666666E1,2.9E1,-7.717415E-2,1E0,-8.248882E-2,4E0,9.75E1,2.02E1,7.3051746E-3,-2.900934E-2,3.58904E-2,1.6307497E-2,4.759364E-2,3.1479318E-2,-2.894218E-3,3.105904E-2,5.212739E-2,6.264555E-2,4.7148727E-2,6.165461E-2,2.7770102E-2,-9.686141E-2,-6.8732924E-3,-4.154706E-2,2.7585825E-2,-1.4006044E-2,-1.7928783E-2,-7.679945E-2,-1.7874006E-2,-5.6120373E-2,2.4457099E-2,3.7648708E-3,-5.702501E-2,3.7092585E-2,-5.6782123E-2,1.6812343E-2,-5.862503E-2,1.4423166E-2,-7.062487E-2,-6.2852534E-3,-5.2541967E-2,-3.136433E-2,-3.9046943E-2,-1.7656013E-3,-1.8419683E-2,1.1839542E-2,-1.4461438E-3,-3.3230286E-2,-6.5974654E-3,5.3771675E-2,5.0972987E-2,-5.842746E-3,4.731277E-2,2.4612753E-2,-2.3507643E-2,2.0348685E-2,2.9775335E-2,-7.643684E-2,4.7256358E-2,1.9203857E-2,3.7920885E-2,-4.5802753E-2,-3.8604353E-2,1.1367659E-2,-1.4766461E-2,-7.703938E-2],"split_indices":[13,102,92,90,22,90,102,11,116,84,3,41,33,106,33,2,12,12,98,21,92,3,23,30,62,93,93,33,27,29,45,16,117,118,30,11,23,93,0,89,36,25,11,2,35,17,60,83,106,91,33,94,10,46,102,16,26,0,89,0,49,17,16,0,0,0,0,0,0,0,0,0,0,0,0,0,0,0,0,0,0,0,0,0,0,0,0,0,0,0,0,0,0,0,0,0,0,0,0,0,0,0,0,0,0,0,0,0,0,0,0,0,0,0,0,0,0,0,0,0,0],"split_type":[0,0,0,0,0,0,0,0,0,0,0,0,0,0,0,0,0,0,0,0,0,0,0,0,0,0,0,0,0,0,0,0,0,0,0,0,0,0,0,0,0,0,0,0,0,0,0,0,0,0,0,0,0,0,0,0,0,0,0,0,0,0,0,0,0,0,0,0,0,0,0,0,0,0,0,0,0,0,0,0,0,0,0,0,0,0,0,0,0,0,0,0,0,0,0,0,0,0,0,0,0,0,0,0,0,0,0,0,0,0,0,0,0,0,0,0,0,0,0,0,0],"sum_hessian":[2.2276336E5,1.2751016E5,9.52532E4,1.15315E5,1.219515E4,9.080194E4,4.45127E3,1.02224164E5,1.3090837E4,4.5520747E3,7.6430757E3,8.888706E4,1.9148745E3,3.5051016E3,9.461683E2,1.639988E4,8.582429E4,1.2980818E4,1.1001773E2,2.9160784E3,1.6359963E3,6.9334995E3,7.095759E2,7.320841E4,1.5678652E4,4.4374503E2,1.4711294E3,2.1417483E3,1.3633533E3,1.4757024E2,7.985981E2,8.101941E3,8.297939E3,3.783337E4,4.7990914E4,7.187985E3,5.792834E3,9.762166E1,1.2396069E1,2.4257385E3,4.9034E2,2.0935127E2,1.426645E3,4.359012E3,2.5744875E3,3.918571E2,3.1771884E2,1.3783578E4,5.942483E4,1.2705276E4,2.9733762E3,3.258169E2,1.17928116E2,1.857919E2,1.2853375E3,3.3111914E2,1.8106292E3,6.527848E0,1.3568254E3,5.9170906E1,8.839932E1,6.5394385E2,1.4465419E2,6.15443E3,1.9475107E3,6.557611E3,1.7403289E3,3.2780473E4,5.052902E3,4.6309785E3,4.3359934E4,1.4771398E3,5.710845E3,3.9875225E3,1.8053114E3,9.09566E1,6.6650677E0,2.0823296E3,3.4340875E2,4.014847E2,8.885526E1,3.269664E1,1.7665463E2,1.144885E3,2.8176E2,1.9736547E3,2.3853574E3,2.872661E1,2.545761E3,3.6166916E2,3.0187939E1,1.481804E1,3.0290082E2,1.3654573E4,1.2900557E2,4.729189E4,1.21329375E4,1.1181535E4,1.5237413E3,9.803588E2,1.9930173E3,2.0646696E2,1.1934994E2,5.721077E1,6.0717346E1,4.9973316E1,1.3581859E2,1.090699E3,1.9463853E2,1.9187134E2,1.3924782E2,1.7887498E3,2.1879398E1,1.219189E3,1.3763646E2,1.5857543E1,7.254179E1,5.553948E1,5.984044E2,1.2103772E2,2.3616472E1],"tree_param":{"num_deleted":"0","num_feature":"128","num_nodes":"121","size_leaf_vector":"1"}},{"base_weights":[-1.2343896E-4,6.136346E-1,-8.256707E-1,2.458004E-1,6.9081986E-1,-8.8804996E-1,4.404157E-1,-2.3848673E-2,6.174038E-1,8.6942977E-1,5.5407864E-1,-9.1953087E-1,5.6744117E-1,5.963508E-1,-1.3615355E-1,8.533235E-2,-4.6955696E-1,7.696816E-1,-1.708406E-1,8.2691514E-1,1.1470363E0,-1.6311167E-1,5.9641534E-1,-1.0124192E0,-5.596546E-1,-5.833257E-2,7.5697196E-1,1.5306573E-1,6.805144E-1,-9.946895E-1,2.201811E-2,2.0841746E-1,-2.4299747E-1,-9.8780185E-1,-2.9261085E-1,8.248519E-1,3.078217E-1,8.5726835E-2,-1.1011332E0,5.803515E-1,8.8133496E-1,1.1896344E0,6.6225237E-1,-2.4624269E-1,5.693999E-1,6.452707E-1,1.7895056E-2,-1.192849E0,-8.634845E-1,-1.2001538E0,-4.8224998E-1,-2.502313E-1,4.7062355E-1,1.836107E-1,8.4001344E-1,-6.0014355E-1,3.4544486E-1,7.2429144E-1,-3.0449718E-1,-8.038202E-2,-5.9008443E-1,1.14161E-1,-6.128378E-1,1.5303858E-2,-2.1259896E-2,-2.2012299E-2,-3.8817164E-3,-5.407321E-2,1.7225666E-2,-6.7246705E-3,-3.9862745E-2,3.8958944E-2,5.918332E-2,-9.875235E-2,1.6890036E-2,1.0394834E-2,-5.9919845E-2,-6.262203E-2,2.501556E-3,3.206497E-2,1.6423821E-2,4.105132E-2,5.20734E-2,5.993272E-2,1.378413E-2,5.163139E-2,1.4819567E-2,-2.7675161E-2,-3.024805E-3,3.137786E-2,-8.818454E-2,2.8596992E-2,4.390348E-2,-2.5540581E-2,1.1186535E-2,-3.0249018E-2,-6.1550774E-2,-4.7943063E-2,-2.4013583E-2,-6.294382E-2,-8.837011E-3,-2.9311312E-2,-2.2424355E-3,-1.656126E-2,4.35654E-2,3.8275864E-2,-3.4395214E-2,-1.8017914E-2,3.1837296E-2,3.6180045E-2,5.3094137E-2,5.114732E-2,-4.1751817E-2,3.968255E-3,4.6308007E-2,3.9486136E-2,-2.0960784E-4,-9.045486E-4,-9.119836E-2,-5.7999294E-2,5.8220476E-3,1.0828472E-2,-2.621452E-2,8.952953E-3,-5.0338786E-2],"categories":[],"categories_nodes":[],"categories_segments":[],"categories_sizes":[],"default_left":[0,0,0,0,0,0,0,0,0,0,0,0,0,0,0,0,0,0,0,0,0,0,0,0,0,0,0,0,0,0,0,0,0,0,0,0,0,0,0,0,0,0,0,0,0,0,0,0,0,0,0,0,0,0,0,0,0,0,0,0,0,0,0,0,0,0,0,0,0,0,0,0,0,0,0,0,0,0,0,0,0,0,0,0,0,0,0,0,0,0,0,0,0,0,0,0,0,0,0,0,0,0,0,0,0,0,0,0,0,0,0,0,0,0,0,0,0,0,0,0,0,0,0,0,0],"id":6,"left_children":[1,3,5,7,9,11,13,15,17,19,21,23,25,27,29,31,33,35,37,39,41,43,45,47,49,51,53,55,57,59,61,63,65,67,69,71,73,75,77,79,81,83,85,87,89,91,93,95,97,99,101,103,105,107,109,111,113,115,117,-1,119,121,123,-1,-1,-1,-1,-1,-1,-1,-1,-1,-1,-1,-1,-1,-1,-1,-1,-1,-1,-1,-1,-1,-1,-1,-1,-1,-1,-1,-1,-1,-1,-1,-1,-1,-1,-1,-1,-1,-1,-1,-1,-1,-1,-1,-1,-1,-1,-1,-1,-1,-1,-1,-1,-1,-1,-1,-1,-1,-1,-1,-1,-1,-1],"loss_changes":[1.1225263E5,3.6075469E3,7.461543E3,2.2085833E3,2.5647266E3,4.1259766E3,3.9897064E2,6.216436E2,1.1126343E3,5.365469E2,1.8064414E3,2.9454766E3,2.2619519E2,1.3019116E2,1.2838852E2,4.1472925E2,2.3020459E2,1.9768115E2,3.584624E2,5.294512E2,1.2406006E2,2.0211786E2,1.5877031E3,1.8813359E3,8.9592676E2,4.5205833E1,6.953143E1,8.114369E1,1.2677258E2,3.552829E1,4.6821545E1,4.6198187E2,9.1240326E1,8.0154724E1,1.495191E2,1.1278613E2,5.7503906E1,1.8502338E2,5.660898E1,1.0946167E2,3.1159766E2,4.5473145E1,6.617059E1,1.700138E2,4.701734E1,8.837988E2,4.7628583E2,7.098828E2,1.4022031E3,1.16908936E2,7.3377563E2,2.995586E1,4.1043785E1,4.618498E1,3.224414E1,4.431844E1,6.877234E1,1.3395471E2,5.4620502E1,0E0,3.6445587E1,4.580011E1,3.1829018E1,0E0,0E0,0E0,0E0,0E0,0E0,0E0,0E0,0E0,0E0,0E0,0E0,0E0,0E0,0E0,0E0,0E0,0E0,0E0,0E0,0E0,0E0,0E0,0E0,0E0,0E0,0E0,0E0,0E0,0E0,0E0,0E0,0E0,0E0,0E0,0E0,0E0,0E0,0E0,0E0,0E0,0E0,0E0,0E0,0E0,0E0,0E0,0E0,0E0,0E0,0E0,0E0,0E0,0E0,0E0,0E0,0E0,0E0,0E0,0E0,0E0,0E0],"parents":[2147483647,0,0,1,1,2,2,3,3,4,4,5,5,6,6,7,7,8,8,9,9,10,10,11,11,12,12,13,13,14,14,15,15,16,16,17,17,18,18,19,19,20,20,21,21,22,22,23,23,24,24,25,25,26,26,27,27,28,28,29,29,30,30,31,31,32,32,33,33,34,34,35,35,36,36,37,37,38,38,39,39,40,40,41,41,42,42,43,43,44,44,45,45,46,46,47,47,48,48,49,49,50,50,51,51,52,52,53,53,54,54,55,55,56,56,57,57,58,58,60,60,61,61,62,62],"right_children":[2,4,6,8,10,12,14,16,18,20,22,24,26,28,30,32,34,36,38,40,42,44,46,48,50,52,54,56,58,60,62,64,66,68,70,72,74,76,78,80,82,84,86,88,90,92,94,96,98,100,102,104,106,108,110,112,114,116,118,-1,120,122,124,-1,-1,-1,-1,-1,-1,-1,-1,-1,-1,-1,-1,-1,-1,-1,-1,-1,-1,-1,-1,-1,-1,-1,-1,-1,-1,-1,-1,-1,-1,-1,-1,-1,-1,-1,-1,-1,-1,-1,-1,-1,-1,-1,-1,-1,-1,-1,-1,-1,-1,-1,-1,-1,-1,-1,-1,-1,-1,-1,-1,-1,-1],"split_conditions":[4.888889E0,4E0,1E0,1.2222222E0,5.625E0,1E0,1E0,1E0,1E0,1E0,4E0,1E0,2E0,2E0,2E0,1E0,9.54E1,1E0,2E0,2E0,1E0,1E0,5E0,6.4E1,5E0,6.9E1,4.4E1,4.8E1,1E0,3.686111E1,2E0,2.7666666E1,3.6805557E1,1.5714285E0,2.5833334E1,1E0,9.2333336E1,5E0,1.12666664E2,1E0,1E0,1E0,1E0,3E0,4.3636365E0,1E0,2E0,3.2222223E0,9.6166664E1,1.43E2,1.5E0,3.772222E1,1E0,3.6983334E1,1E0,9.6E1,1.12E2,1E0,2.6E1,-8.038202E-2,7E1,3.2E1,8.5E1,1.5303858E-2,-2.1259896E-2,-2.2012299E-2,-3.8817164E-3,-5.407321E-2,1.7225666E-2,-6.7246705E-3,-3.9862745E-2,3.8958944E-2,5.918332E-2,-9.875235E-2,1.6890036E-2,1.0394834E-2,-5.9919845E-2,-6.262203E-2,2.501556E-3,3.206497E-2,1.6423821E-2,4.105132E-2,5.20734E-2,5.993272E-2,1.378413E-2,5.163139E-2,1.4819567E-2,-2.7675161E-2,-3.024805E-3,3.137786E-2,-8.818454E-2,2.8596992E-2,4.390348E-2,-2.5540581E-2,1.1186535E-2,-3.0249018E-2,-6.1550774E-2,-4.7943063E-2,-2.4013583E-2,-6.294382E-2,-8.837011E-3,-2.9311312E-2,-2.2424355E-3,-1.656126E-2,4.35654E-2,3.8275864E-2,-3.4395214E-2,-1.8017914E-2,3.1837296E-2,3.6180045E-2,5.3094137E-2,5.114732E-2,-4.1751817E-2,3.968255E-3,4.6308007E-2,3.9486136E-2,-2.0960784E-4,-9.045486E-4,-9.119836E-2,-5.7999294E-2,5.8220476E-3,1.0828472E-2,-2.621452E-2,8.952953E-3,-5.0338786E-2],"split_indices":[13,22,92,11,12,90,102,89,102,90,37,106,33,33,33,102,18,118,82,1,102,111,3,93,30,93,93,93,116,19,84,16,19,12,16,90,18,3,54,117,106,116,92,30,13,106,23,11,14,62,43,29,102,19,106,66,4,117,26,0,93,69,27,0,0,0,0,0,0,0,0,0,0,0,0,0,0,0,0,0,0,0,0,0,0,0,0,0,0,0,0,0,0,0,0,0,0,0,0,0,0,0,0,0,0,0,0,0,0,0,0,0,0,0,0,0,0,0,0,0,0,0,0,0,0],"split_type":[0,0,0,0,0,0,0,0,0,0,0,0,0,0,0,0,0,0,0,0,0,0,0,0,0,0,0,0,0,0,0,0,0,0,0,0,0,0,0,0,0,0,0,0,0,0,0,0,0,0,0,0,0,0,0,0,0,0,0,0,0,0,0,0,0,0,0,0,0,0,0,0,0,0,0,0,0,0,0,0,0,0,0,0,0,0,0,0,0,0,0,0,0,0,0,0,0,0,0,0,0,0,0,0,0,0,0,0,0,0,0,0,0,0,0,0,0,0,0,0,0,0,0,0,0],"sum_hessian":[2.2154067E5,1.2706999E5,9.447069E4,2.2040049E4,1.05029945E5,9.0035016E4,4.4356704E3,1.2772668E4,9.267381E3,4.554031E4,5.9489633E4,8.8129234E4,1.9057826E3,3.4913806E3,9.442897E2,1.0260145E4,2.5125237E3,7.766941E3,1.5004404E3,3.949565E4,6.044663E3,3.3158494E3,5.617378E4,7.004737E4,1.808187E4,4.4319113E2,1.4625914E3,5.5756036E2,2.93382E3,1.4608266E2,7.9820703E2,7.462826E3,2.797318E3,6.3834314E2,1.8741805E3,6.937458E3,8.294828E2,1.176797E3,3.2364355E2,7.143184E3,3.2352463E4,5.555082E3,4.8958105E2,2.9784912E3,3.3735812E2,5.1799277E4,4.374504E3,3.1671402E4,3.8375965E4,1.9480287E3,1.613384E4,3.2559592E2,1.1759523E2,1.8543855E2,1.2771528E3,1.1300394E2,4.445564E2,2.8092336E3,1.2458662E2,5.6903755E1,8.91789E1,6.977551E2,1.004519E2,6.4666353E3,9.96191E2,1.2749133E3,1.5224047E3,5.965909E2,4.175229E1,1.4280148E3,4.4616583E2,6.1569224E3,7.805354E2,9.910732E0,8.19572E2,1.0753296E3,1.0146734E2,2.859683E2,3.767526E1,5.750219E3,1.3929648E3,2.3505902E4,8.84656E3,5.5004854E3,5.4596462E1,2.4238391E2,2.4719716E2,1.1214377E3,1.8570533E3,3.2986652E2,7.4916086E0,3.9393812E4,1.2405466E4,1.2254213E3,3.1490828E3,1.931882E3,2.973952E4,3.0726926E4,7.6490366E3,1.8421006E3,1.0592815E2,1.3034922E4,3.0989182E3,3.0432333E2,2.1272562E1,9.4006004E1,2.3589224E1,8.436582E1,1.0107273E2,8.4044257E2,4.367103E2,1.3862215E1,9.914172E1,3.056475E2,1.3890892E2,2.5776306E3,2.3160304E2,1.05679E2,1.890762E1,4.900688E1,4.017202E1,6.018745E2,9.5880646E1,3.3551632E1,6.690027E1],"tree_param":{"num_deleted":"0","num_feature":"128","num_nodes":"125","size_leaf_vector":"1"}},{"base_weights":[-1.5199049E-4,5.857289E-1,-7.909329E-1,6.38774E-1,8.663046E-2,-8.508665E-1,4.199421E-1,5.878877E-1,1.0389897E0,-2.5826916E-1,3.1856918E-1,-8.8109225E-1,5.4194844E-1,5.689112E-1,-1.2991814E-1,2.7924964E-1,6.470719E-1,1.0473131E0,6.671154E-2,-9.808541E-2,-5.6829655E-1,3.9998496E-1,-4.5144206E-1,-1.289962E0,-8.005376E-1,-5.543679E-2,7.236252E-1,4.1776234E-1,8.0734E-1,-9.566403E-1,2.0849722E-2,-2.8773846E-2,5.817593E-1,6.5583736E-2,6.9308096E-1,1.0868313E0,8.7139535E-1,3.305127E-1,-9.347605E-2,1.405594E-1,-2.7802908E-1,-1.1878548E0,-4.746391E-1,5.429617E-1,8.156312E-2,-9.743392E-1,1.7535341E-1,-1.3050487E0,-2.0665178E-1,-8.969728E-1,-4.593739E-1,-4.422665E-1,2.0350966E-1,1.746982E-1,8.035797E-1,-1.0213863E-1,5.133295E-1,-1.0131011E0,8.238108E-1,-1.0468805E0,7.9917505E-2,1.0846234E-1,-5.849687E-1,6.5256776E-3,-2.6693482E-2,3.2918356E-2,1.4713936E-2,1.7618762E-2,-8.397963E-3,4.3626092E-2,2.8912937E-2,5.6167144E-2,4.38503E-2,3.9057396E-2,6.2408954E-2,2.5591562E-2,-9.324142E-2,-1.6436859E-3,2.4731694E-2,-8.576816E-3,-3.449581E-2,-6.688241E-2,2.4026452E-2,-1.5886424E-2,-5.1804405E-2,2.562852E-2,6.838321E-2,7.783101E-3,-3.1197047E-2,-5.446872E-2,1.8415203E-2,1.5013714E-2,-3.840169E-2,-6.710716E-2,-4.7511548E-2,-3.1541716E-2,2.4975924E-2,-4.6847083E-2,-1.2896086E-2,-2.6993057E-2,4.7685187E-3,-6.3337744E-3,-6.420394E-2,-2.7462086E-2,2.4264412E-2,4.8210945E-2,-5.9048827E-3,3.6027525E-2,5.6030553E-2,9.069455E-3,-3.6825653E-2,2.690728E-2,-7.247156E-2,5.661958E-2,-7.766135E-2,-5.8858156E-2,4.185309E-2,-7.34953E-2,-2.8099779E-2,-3.9667595E-2,8.963342E-3,-1.0602886E-2,-6.92473E-2],"categories":[],"categories_nodes":[],"categories_segments":[],"categories_sizes":[],"default_left":[0,0,0,0,0,0,0,0,0,0,0,0,0,0,0,0,0,0,0,0,0,0,0,0,0,0,0,0,0,0,0,0,0,0,0,0,0,0,0,0,0,0,0,0,0,0,0,0,0,0,0,0,0,0,0,0,0,0,0,0,0,0,0,0,0,0,0,0,0,0,0,0,0,0,0,0,0,0,0,0,0,0,0,0,0,0,0,0,0,0,0,0,0,0,0,0,0,0,0,0,0,0,0,0,0,0,0,0,0,0,0,0,0,0,0,0,0,0,0,0,0,0,0],"id":7,"left_children":[1,3,5,7,9,11,13,15,17,19,21,23,25,27,29,31,33,35,37,39,41,43,45,47,49,51,53,55,57,59,61,63,65,67,69,71,73,75,-1,77,79,81,83,85,87,89,91,93,95,97,99,101,103,105,107,109,111,113,115,117,-1,119,121,-1,-1,-1,-1,-1,-1,-1,-1,-1,-1,-1,-1,-1,-1,-1,-1,-1,-1,-1,-1,-1,-1,-1,-1,-1,-1,-1,-1,-1,-1,-1,-1,-1,-1,-1,-1,-1,-1,-1,-1,-1,-1,-1,-1,-1,-1,-1,-1,-1,-1,-1,-1,-1,-1,-1,-1,-1,-1,-1,-1],"loss_changes":[1.0202018E5,3.3486836E3,6.8013438E3,2.3278906E3,9.722698E2,3.7596836E3,3.6215607E2,1.8527891E3,1.04296875E2,2.4264474E2,4.557505E2,2.8775312E3,2.059508E2,1.25013306E2,1.1757116E2,1.5210906E3,2.2771719E3,8.7944336E1,5.7076054E1,1.384629E2,9.6029724E1,2.9918396E2,2.280718E2,2.3480469E2,2.4018164E3,4.4501274E1,6.371344E1,1.0592413E2,4.1266113E1,3.5216766E1,4.245191E1,6.508937E2,1.8118457E2,4.1814114E2,1.6246562E3,7.897461E1,7.895337E1,4.0015354E1,0E0,8.5150894E1,8.050571E1,5.510675E1,1.2721106E2,1.12980835E2,1.0663044E2,5.8976532E1,3.760086E1,1.8543164E2,5.9848007E1,1.4537188E3,7.185918E2,4.71525E1,5.6744534E1,4.316868E1,3.26131E1,5.979426E1,8.846115E1,1.6289795E1,3.64328E1,2.8121552E1,0E0,4.47469E1,2.9854233E1,0E0,0E0,0E0,0E0,0E0,0E0,0E0,0E0,0E0,0E0,0E0,0E0,0E0,0E0,0E0,0E0,0E0,0E0,0E0,0E0,0E0,0E0,0E0,0E0,0E0,0E0,0E0,0E0,0E0,0E0,0E0,0E0,0E0,0E0,0E0,0E0,0E0,0E0,0E0,0E0,0E0,0E0,0E0,0E0,0E0,0E0,0E0,0E0,0E0,0E0,0E0,0E0,0E0,0E0,0E0,0E0,0E0,0E0,0E0,0E0],"parents":[2147483647,0,0,1,1,2,2,3,3,4,4,5,5,6,6,7,7,8,8,9,9,10,10,11,11,12,12,13,13,14,14,15,15,16,16,17,17,18,18,19,19,20,20,21,21,22,22,23,23,24,24,25,25,26,26,27,27,28,28,29,29,30,30,31,31,32,32,33,33,34,34,35,35,36,36,37,37,39,39,40,40,41,41,42,42,43,43,44,44,45,45,46,46,47,47,48,48,49,49,50,50,51,51,52,52,53,53,54,54,55,55,56,56,57,57,58,58,59,59,61,61,62,62],"right_children":[2,4,6,8,10,12,14,16,18,20,22,24,26,28,30,32,34,36,38,40,42,44,46,48,50,52,54,56,58,60,62,64,66,68,70,72,74,76,-1,78,80,82,84,86,88,90,92,94,96,98,100,102,104,106,108,110,112,114,116,118,-1,120,122,-1,-1,-1,-1,-1,-1,-1,-1,-1,-1,-1,-1,-1,-1,-1,-1,-1,-1,-1,-1,-1,-1,-1,-1,-1,-1,-1,-1,-1,-1,-1,-1,-1,-1,-1,-1,-1,-1,-1,-1,-1,-1,-1,-1,-1,-1,-1,-1,-1,-1,-1,-1,-1,-1,-1,-1,-1,-1,-1,-1],"split_conditions":[4.888889E0,1E0,1E0,1E0,2E0,1E0,1E0,1.1666666E0,1E0,2E0,5E0,5E0,2E0,1E0,2E0,4E0,5E0,1E0,1E0,1E0,1E0,1E0,2E0,2.3E0,1E0,6.2666668E1,4.4E1,2E0,8.8166664E1,8.5E1,2E0,2.5833334E1,1E0,1E0,6E0,1E0,2E0,7.8E1,-9.347605E-2,2E0,1E0,1.59E2,4E0,1E0,2E0,1.33E2,9.825E1,8.3E1,1.21E1,1.43E2,1E0,1E0,4.4E1,9.5E0,1E0,1.04E2,2.9E1,6.7E1,2.3E1,7E1,7.9917505E-2,9.75E1,2.55E0,6.5256776E-3,-2.6693482E-2,3.2918356E-2,1.4713936E-2,1.7618762E-2,-8.397963E-3,4.3626092E-2,2.8912937E-2,5.6167144E-2,4.38503E-2,3.9057396E-2,6.2408954E-2,2.5591562E-2,-9.324142E-2,-1.6436859E-3,2.4731694E-2,-8.576816E-3,-3.449581E-2,-6.688241E-2,2.4026452E-2,-1.5886424E-2,-5.1804405E-2,2.562852E-2,6.838321E-2,7.783101E-3,-3.1197047E-2,-5.446872E-2,1.8415203E-2,1.5013714E-2,-3.840169E-2,-6.710716E-2,-4.7511548E-2,-3.1541716E-2,2.4975924E-2,-4.6847083E-2,-1.2896086E-2,-2.6993057E-2,4.7685187E-3,-6.3337744E-3,-6.420394E-2,-2.7462086E-2,2.4264412E-2,4.8210945E-2,-5.9048827E-3,3.6027525E-2,5.6030553E-2,9.069455E-3,-3.6825653E-2,2.690728E-2,-7.247156E-2,5.661958E-2,-7.766135E-2,-5.8858156E-2,4.185309E-2,-7.34953E-2,-2.8099779E-2,-3.9667595E-2,8.963342E-3,-1.0602886E-2,-6.92473E-2],"split_indices":[13,102,92,90,21,90,102,11,116,84,3,30,33,106,33,2,37,118,98,91,92,92,23,47,106,10,93,33,17,10,84,16,117,110,2,117,23,93,0,22,89,44,2,88,81,17,18,93,75,62,91,102,93,46,103,27,26,44,93,93,0,17,59,0,0,0,0,0,0,0,0,0,0,0,0,0,0,0,0,0,0,0,0,0,0,0,0,0,0,0,0,0,0,0,0,0,0,0,0,0,0,0,0,0,0,0,0,0,0,0,0,0,0,0,0,0,0,0,0,0,0,0,0],"split_type":[0,0,0,0,0,0,0,0,0,0,0,0,0,0,0,0,0,0,0,0,0,0,0,0,0,0,0,0,0,0,0,0,0,0,0,0,0,0,0,0,0,0,0,0,0,0,0,0,0,0,0,0,0,0,0,0,0,0,0,0,0,0,0,0,0,0,0,0,0,0,0,0,0,0,0,0,0,0,0,0,0,0,0,0,0,0,0,0,0,0,0,0,0,0,0,0,0,0,0,0,0,0,0,0,0,0,0,0,0,0,0,0,0,0,0,0,0,0,0,0,0,0,0],"sum_hessian":[2.2019969E5,1.2648706E5,9.371262E4,1.1433505E5,1.2152016E4,8.929325E4,4.41937E3,1.0143975E5,1.2895303E4,4.8861113E3,7.265904E3,8.739699E4,1.8962535E3,3.477268E3,9.421021E2,1.6323024E4,8.511673E4,1.278577E4,1.0953312E2,3.2224597E3,1.6636517E3,6.5715527E3,6.9435095E2,1.4382251E4,7.301474E4,4.4236703E2,1.4538866E3,2.1298374E3,1.3474308E3,1.444852E2,7.9761694E2,8.0882524E3,8.234771E3,6.2410654E3,7.887566E4,1.0436199E4,2.3495713E3,9.7129105E1,1.2404012E1,1.3853717E3,1.837088E3,2.1693182E2,1.44672E3,4.5346934E3,2.0368595E3,3.7824762E2,3.1610333E2,1.4184507E4,1.9774431E2,5.692296E4,1.6091782E4,1.770986E2,2.6526843E2,1.8524867E2,1.2686378E3,3.3070108E2,1.7991362E3,1.15392475E1,1.3358915E3,1.4012631E2,4.3588886E0,6.9755804E2,1.000589E2,6.149639E3,1.9386133E3,6.501075E3,1.7336964E3,2.800964E3,3.4401013E3,3.0774914E4,4.8100742E4,8.885658E3,1.550541E3,1.8980278E3,4.5154337E2,9.042735E1,6.701756E0,9.305002E2,4.5487146E2,1.4608135E3,3.762746E2,1.9924146E2,1.7690367E1,1.1319381E3,3.1478186E2,4.3750874E3,1.5960619E2,1.8439675E3,1.9289203E2,3.485713E2,2.9676311E1,2.797423E2,3.6361042E1,1.2839422E4,1.3450854E3,1.2360432E2,7.413999E1,5.357189E4,3.351068E3,1.405289E4,2.0388923E3,1.2964561E2,4.7452984E1,7.199357E1,1.9327487E2,4.949441E1,1.3575426E2,1.0079363E3,2.6070157E2,2.2904544E2,1.0165565E2,1.7773896E3,2.1746542E1,2.1002166E0,9.439031E0,8.210578E0,1.3276809E3,7.375191E1,6.6374405E1,5.003779E1,6.475202E2,6.910878E1,3.0950119E1],"tree_param":{"num_deleted":"0","num_feature":"128","num_nodes":"123","size_leaf_vector":"1"}},{"base_weights":[-1.8297942E-4,5.5968475E-1,-7.57684E-1,6.1059946E-1,8.256277E-2,-8.152404E-1,4.0061572E-1,5.616948E-1,9.96812E-1,-2.455614E-1,3.0365217E-1,-8.442474E-1,5.173318E-1,5.430141E-1,-1.2396788E-1,2.1208073E-1,6.104029E-1,1.0048695E0,6.2123E-2,-9.324029E-2,-5.404858E-1,3.8085577E-1,-4.301937E-1,-9.2821246E-1,-4.573047E-1,-5.2910015E-2,6.916678E-1,3.9802825E-1,7.7273464E-1,-9.2012465E-1,1.966845E-2,-2.6815102E-2,6.745393E-1,8.3149835E-2,6.5152925E-1,1.0168661E0,4.387953E-1,3.1421274E-1,-8.930822E-2,-2.0674627E-1,2.505287E-1,-1.1331694E0,-4.511927E-1,5.173915E-1,7.751784E-2,-9.358582E-1,1.7142454E-1,-1.2657223E0,-8.511872E-1,-5.870673E-1,8.942854E-2,-2.3424219E-1,4.5011142E-1,1.6660333E-1,7.68513E-1,-9.723475E-2,4.892663E-1,7.923113E-1,-7.1343875E-1,-7.623733E-2,-5.144937E-1,4.7641687E-2,-9.131423E-2,6.347481E-3,-2.4902675E-2,-4.2306192E-2,3.4516864E-2,1.7415708E-2,-6.7937397E-3,3.393348E-2,6.0014753E-3,5.2781295E-2,4.221354E-2,-5.043864E-3,4.709853E-2,2.4226418E-2,-9.5668584E-2,-5.902467E-3,-3.7343256E-2,-1.0150613E-1,1.4118339E-2,-6.3834056E-2,2.2876058E-2,-1.5099542E-2,-4.926276E-2,2.4415726E-2,6.554353E-2,7.3999586E-3,-2.9583165E-2,-5.2367654E-2,1.7521394E-2,1.447057E-2,-3.6196698E-2,-6.388204E-2,-1.7833319E-3,-1.00261485E-2,-4.4708278E-2,-3.393202E-2,2.3328688E-3,-3.997372E-3,2.7480384E-2,-5.851611E-4,-3.182866E-2,-5.867492E-3,4.9121458E-2,-4.2825256E-2,1.9193484E-2,4.8181616E-2,3.1694513E-2,-2.2120325E-2,1.88905E-2,2.745295E-2,-1.5555029E-2,-7.37154E-2,4.0181275E-2,-7.1147785E-2,4.6898343E-2,3.8285658E-2,-4.0353782E-2,1.8025378E-2,-6.119731E-3],"categories":[],"categories_nodes":[],"categories_segments":[],"categories_sizes":[],"default_left":[0,0,0,0,0,0,0,0,0,0,0,0,0,0,0,0,0,0,0,0,0,0,0,0,0,0,0,0,0,0,0,0,0,0,0,0,0,0,0,0,0,0,0,0,0,0,0,0,0,0,0,0,0,0,0,0,0,0,0,0,0,0,0,0,0,0,0,0,0,0,0,0,0,0,0,0,0,0,0,0,0,0,0,0,0,0,0,0,0,0,0,0,0,0,0,0,0,0,0,0,0,0,0,0,0,0,0,0,0,0,0,0,0,0,0,0,0,0,0,0,0],"id":8,"left_children":[1,3,5,7,9,11,13,15,17,19,21,23,25,27,29,31,33,35,37,39,41,43,45,47,49,51,53,55,57,59,61,63,65,67,69,71,73,75,-1,77,79,81,83,85,87,89,91,93,95,97,99,101,103,105,107,109,111,113,115,-1,117,119,-1,-1,-1,-1,-1,-1,-1,-1,-1,-1,-1,-1,-1,-1,-1,-1,-1,-1,-1,-1,-1,-1,-1,-1,-1,-1,-1,-1,-1,-1,-1,-1,-1,-1,-1,-1,-1,-1,-1,-1,-1,-1,-1,-1,-1,-1,-1,-1,-1,-1,-1,-1,-1,-1,-1,-1,-1,-1,-1],"loss_changes":[9.277791E4,3.055746E3,6.1985664E3,2.14625E3,8.800663E2,3.424082E3,3.288822E2,1.7179199E3,9.6140625E1,2.1934076E2,4.1078235E2,2.8159414E3,1.876843E2,1.15006165E2,1.0758075E2,1.3631824E3,1.9201094E3,8.555859E1,5.1926025E1,1.2575933E2,8.750217E1,2.7157996E2,2.1018265E2,1.8506172E3,1.0967517E3,4.0502274E1,5.8202637E1,9.6053406E1,3.9510437E1,3.447769E1,4.128363E1,5.8965424E2,1.0154993E2,3.7223874E2,1.1848594E3,8.206641E1,7.194267E1,3.8054287E1,0E0,1.1596616E2,5.867225E1,5.0141388E1,1.1500174E2,1.0370093E2,9.615493E1,5.4183594E1,3.3604324E1,1.9395117E2,1.6216406E3,7.2504443E2,2.3122527E2,2.9197607E1,3.566633E1,4.163933E1,3.250769E1,5.4499382E1,8.6038605E1,3.5078552E1,2.2342667E1,0E0,3.3414413E1,4.1904633E1,0E0,0E0,0E0,0E0,0E0,0E0,0E0,0E0,0E0,0E0,0E0,0E0,0E0,0E0,0E0,0E0,0E0,0E0,0E0,0E0,0E0,0E0,0E0,0E0,0E0,0E0,0E0,0E0,0E0,0E0,0E0,0E0,0E0,0E0,0E0,0E0,0E0,0E0,0E0,0E0,0E0,0E0,0E0,0E0,0E0,0E0,0E0,0E0,0E0,0E0,0E0,0E0,0E0,0E0,0E0,0E0,0E0,0E0,0E0],"parents":[2147483647,0,0,1,1,2,2,3,3,4,4,5,5,6,6,7,7,8,8,9,9,10,10,11,11,12,12,13,13,14,14,15,15,16,16,17,17,18,18,19,19,20,20,21,21,22,22,23,23,24,24,25,25,26,26,27,27,28,28,29,29,30,30,31,31,32,32,33,33,34,34,35,35,36,36,37,37,39,39,40,40,41,41,42,42,43,43,44,44,45,45,46,46,47,47,48,48,49,49,50,50,51,51,52,52,53,53,54,54,55,55,56,56,57,57,58,58,60,60,61,61],"right_children":[2,4,6,8,10,12,14,16,18,20,22,24,26,28,30,32,34,36,38,40,42,44,46,48,50,52,54,56,58,60,62,64,66,68,70,72,74,76,-1,78,80,82,84,86,88,90,92,94,96,98,100,102,104,106,108,110,112,114,116,-1,118,120,-1,-1,-1,-1,-1,-1,-1,-1,-1,-1,-1,-1,-1,-1,-1,-1,-1,-1,-1,-1,-1,-1,-1,-1,-1,-1,-1,-1,-1,-1,-1,-1,-1,-1,-1,-1,-1,-1,-1,-1,-1,-1,-1,-1,-1,-1,-1,-1,-1,-1,-1,-1,-1,-1,-1,-1,-1,-1,-1],"split_conditions":[4.7777777E0,1E0,1E0,1E0,2E0,1E0,1E0,4E0,1E0,2E0,5E0,2.5E1,2E0,1E0,2E0,1.5E0,5E0,5E0,1E0,3E0,1E0,1E0,2E0,5E0,1.43E2,6.9E1,4.4E1,2E0,3E1,3.677778E1,3.7E1,2.5666666E1,9.1333336E1,1E0,5E0,1E0,2E0,4.2E0,-8.930822E-2,1E0,3.85E1,1.59E2,4E0,1E0,2E0,1.33E2,9.825E1,2E0,3.2222223E0,1.95E0,1.48E2,9.71E1,6.2666668E1,3.6666668E1,2.3E1,2.0666666E1,1E0,5.7E1,1.42E2,-7.623733E-2,4E0,9.4E0,-9.131423E-2,6.347481E-3,-2.4902675E-2,-4.2306192E-2,3.4516864E-2,1.7415708E-2,-6.7937397E-3,3.393348E-2,6.0014753E-3,5.2781295E-2,4.221354E-2,-5.043864E-3,4.709853E-2,2.4226418E-2,-9.5668584E-2,-5.902467E-3,-3.7343256E-2,-1.0150613E-1,1.4118339E-2,-6.3834056E-2,2.2876058E-2,-1.5099542E-2,-4.926276E-2,2.4415726E-2,6.554353E-2,7.3999586E-3,-2.9583165E-2,-5.2367654E-2,1.7521394E-2,1.447057E-2,-3.6196698E-2,-6.388204E-2,-1.7833319E-3,-1.00261485E-2,-4.4708278E-2,-3.393202E-2,2.3328688E-3,-3.997372E-3,2.7480384E-2,-5.851611E-4,-3.182866E-2,-5.867492E-3,4.9121458E-2,-4.2825256E-2,1.9193484E-2,4.8181616E-2,3.1694513E-2,-2.2120325E-2,1.88905E-2,2.745295E-2,-1.5555029E-2,-7.37154E-2,4.0181275E-2,-7.1147785E-2,4.6898343E-2,3.8285658E-2,-4.0353782E-2,1.8025378E-2,-6.119731E-3],"split_indices":[13,102,92,90,21,90,102,2,116,84,3,41,33,106,33,11,37,3,98,22,92,92,23,30,62,93,93,33,26,29,6,16,18,110,3,118,23,49,0,89,10,44,2,88,81,17,18,83,11,59,50,18,10,29,6,16,116,27,50,0,49,46,0,0,0,0,0,0,0,0,0,0,0,0,0,0,0,0,0,0,0,0,0,0,0,0,0,0,0,0,0,0,0,0,0,0,0,0,0,0,0,0,0,0,0,0,0,0,0,0,0,0,0,0,0,0,0,0,0,0,0],"split_type":[0,0,0,0,0,0,0,0,0,0,0,0,0,0,0,0,0,0,0,0,0,0,0,0,0,0,0,0,0,0,0,0,0,0,0,0,0,0,0,0,0,0,0,0,0,0,0,0,0,0,0,0,0,0,0,0,0,0,0,0,0,0,0,0,0,0,0,0,0,0,0,0,0,0,0,0,0,0,0,0,0,0,0,0,0,0,0,0,0,0,0,0,0,0,0,0,0,0,0,0,0,0,0,0,0,0,0,0,0,0,0,0,0,0,0,0,0,0,0,0,0],"sum_hessian":[2.1876203E5,1.2579064E5,9.297139E4,1.1366132E5,1.2129324E4,8.857058E4,4.400813E3,1.0088862E5,1.27727E4,4.882692E3,7.246633E3,8.668403E4,1.8865441E3,3.4612266E3,9.3958624E2,1.2337627E4,8.855099E4,1.2663459E4,1.0924042E2,3.2206316E3,1.66206E3,6.5572627E3,6.893699E2,7.122671E4,1.5457325E4,4.4187994E2,1.4446641E3,2.1236428E3,1.3375837E3,1.4277847E2,7.9680774E2,8.1357974E3,4.20183E3,6.4075283E3,8.214346E4,1.2399876E4,2.635836E2,9.6859634E1,1.2380783E1,2.4214978E3,7.991339E2,2.1608752E2,1.4459725E3,4.5214175E3,2.0358455E3,3.742524E2,3.1511746E2,1.3231856E4,5.799485E4,1.2492306E4,2.9650193E3,3.2518842E2,1.16691536E2,1.8484326E2,1.2598208E3,3.3035062E2,1.7932921E3,1.3206543E3,1.692949E1,5.6219837E1,8.655863E1,7.85873E2,1.0934786E1,6.1347603E3,2.0010369E3,4.266278E1,4.159167E3,2.8982017E3,3.5093267E3,7.815244E4,3.9910264E3,1.0121722E4,2.278154E3,1.2756515E2,1.3601843E2,9.07069E1,6.152739E0,2.0809827E3,3.405151E2,1.0138263E1,7.8899567E2,1.9838655E2,1.7700975E1,1.1314445E3,3.1452798E2,4.363146E3,1.5827168E2,1.8425574E3,1.9328806E2,3.4457086E2,2.968152E1,2.7902536E2,3.609211E1,1.310484E4,1.2701652E2,3.593728E3,5.4401125E4,1.0915018E4,1.5772886E3,2.1679124E3,7.97107E2,2.1003957E2,1.1514886E2,5.6858643E1,5.9832893E1,3.1862125E1,1.5298112E2,5.1182907E2,7.4799176E2,1.9136893E2,1.3898167E2,1.6689263E3,1.2436585E2,5.9172735E0,1.314737E3,1.1938514E1,4.9909763E0,1.5801459E1,7.075718E1,2.7632193E2,5.0955103E2],"tree_param":{"num_deleted":"0","num_feature":"128","num_nodes":"121","size_leaf_vector":"1"}},{"base_weights":[-2.1412862E-4,5.3420836E-1,-7.2726893E-1,2.0961106E-1,6.027855E-1,-7.827354E-1,3.822573E-1,-2.0011082E-2,5.3975683E-1,7.7035445E-1,4.7530004E-1,-8.106769E-1,4.9471113E-1,5.184929E-1,-1.18265845E-1,8.052646E-2,-4.326792E-1,6.753205E-1,-1.4341024E-1,5.913456E-1,8.29855E-1,-1.5837312E-1,5.1317513E-1,-8.9457977E-1,-4.4632554E-1,-5.0313577E-2,6.621955E-1,5.6908894E-1,-1.1204248E-1,-8.865877E-1,1.8591596E-2,-3.982832E-2,3.7731612E-1,-1.005889E0,-2.840325E-1,7.283221E-1,2.3634939E-1,8.164014E-2,-9.5737934E-1,5.446164E-1,9.6016717E-1,7.6980466E-1,9.809555E-1,1.5672576E-1,-3.2576445E-1,5.57677E-1,-7.982409E-3,-1.2886726E0,-8.3051205E-1,-5.6771404E-1,7.160242E-2,-4.1063133E-1,1.910884E-1,1.583184E-1,7.364353E-1,6.3472533E-1,-3.3746906E-2,-3.9039886E-1,5.728514E-1,-1.2593666E0,-2.5361034E-1,1.00995384E-1,-5.7115847E-1,-7.954131E-4,-4.8577007E-2,2.815541E-2,3.6392943E-3,-5.505673E-2,1.713298E-2,-2.1750761E-2,4.8499587E-3,3.424203E-2,5.3581264E-2,-4.568948E-2,1.5204154E-2,9.8499805E-3,-5.67379E-2,-5.5125743E-2,6.7050136E-3,2.0652192E-2,3.1833775E-2,4.948862E-2,-4.293121E-3,3.5267487E-2,4.9312312E-2,5.030554E-2,2.0127526E-2,4.8163656E-2,3.5325815E-3,-1.9868944E-2,1.722311E-2,2.41861E-2,3.937257E-2,-2.4582896E-2,8.971927E-3,-4.392152E-2,-6.5976724E-2,-1.0386391E-2,-4.355484E-2,-3.272735E-2,1.9573786E-3,-1.53536415E-2,1.2972976E-2,-5.463607E-3,-6.0991157E-2,-2.5512278E-2,2.2681689E-2,-1.7201228E-2,2.8930906E-2,3.1016385E-2,4.7942877E-2,3.3784814E-2,-1.0558879E-2,2.7683473E-3,-1.0462699E-1,-3.1651657E-2,2.8423188E-2,-9.297983E-2,3.8109418E-2,-1.4444127E-2,-7.0503786E-2,-4.7244817E-2,2.0739734E-2,6.3944147E-3,-8.657542E-2,-3.414182E-3,-6.1339747E-2],"categories":[],"categories_nodes":[],"categories_segments":[],"categories_sizes":[],"default_left":[0,0,0,0,0,0,0,0,0,0,0,0,0,0,0,0,0,0,0,0,0,0,0,0,0,0,0,0,0,0,0,0,0,0,0,0,0,0,0,0,0,0,0,0,0,0,0,0,0,0,0,0,0,0,0,0,0,0,0,0,0,0,0,0,0,0,0,0,0,0,0,0,0,0,0,0,0,0,0,0,0,0,0,0,0,0,0,0,0,0,0,0,0,0,0,0,0,0,0,0,0,0,0,0,0,0,0,0,0,0,0,0,0,0,0,0,0,0,0,0,0,0,0,0,0,0,0],"id":9,"left_children":[1,3,5,7,9,11,13,15,17,19,21,23,25,27,29,31,33,35,37,39,41,43,45,47,49,51,53,55,57,59,61,63,65,67,69,71,73,75,77,79,81,83,85,87,89,91,93,95,97,99,101,103,105,107,109,111,113,115,117,119,121,123,125,-1,-1,-1,-1,-1,-1,-1,-1,-1,-1,-1,-1,-1,-1,-1,-1,-1,-1,-1,-1,-1,-1,-1,-1,-1,-1,-1,-1,-1,-1,-1,-1,-1,-1,-1,-1,-1,-1,-1,-1,-1,-1,-1,-1,-1,-1,-1,-1,-1,-1,-1,-1,-1,-1,-1,-1,-1,-1,-1,-1,-1,-1,-1,-1],"loss_changes":[8.4412305E4,2.7870625E3,5.6643516E3,1.6557256E3,2.2079062E3,3.129129E3,2.9890753E2,5.3450745E2,8.298401E2,4.752129E2,1.4091396E3,2.6218672E3,1.7135764E2,1.09972534E2,9.869833E1,3.7005884E2,2.1475912E2,1.7376562E2,2.7197546E2,1.9156396E2,3.0337305E2,1.7474028E2,1.2848369E3,1.7593125E3,1.009604E3,3.8533478E1,5.3591248E1,1.2621875E2,4.9171272E1,3.3166504E1,3.881762E1,1.642705E2,1.6907687E2,6.7080444E1,1.1541751E2,9.883301E1,6.313723E1,1.6351912E2,5.108896E1,1.1958154E2,3.885669E1,3.3398633E2,1.3823828E2,7.9747665E1,1.03969055E2,8.669453E2,3.9526666E2,1.2225781E2,1.5157188E3,6.855425E2,2.1703445E2,4.319641E1,4.9104034E1,3.93955E1,3.17146E1,9.982678E1,5.774482E1,4.2969933E1,3.577428E1,1.2618835E1,2.5274544E1,3.4749874E1,3.2203865E1,0E0,0E0,0E0,0E0,0E0,0E0,0E0,0E0,0E0,0E0,0E0,0E0,0E0,0E0,0E0,0E0,0E0,0E0,0E0,0E0,0E0,0E0,0E0,0E0,0E0,0E0,0E0,0E0,0E0,0E0,0E0,0E0,0E0,0E0,0E0,0E0,0E0,0E0,0E0,0E0,0E0,0E0,0E0,0E0,0E0,0E0,0E0,0E0,0E0,0E0,0E0,0E0,0E0,0E0,0E0,0E0,0E0,0E0,0E0,0E0,0E0,0E0,0E0,0E0],"parents":[2147483647,0,0,1,1,2,2,3,3,4,4,5,5,6,6,7,7,8,8,9,9,10,10,11,11,12,12,13,13,14,14,15,15,16,16,17,17,18,18,19,19,20,20,21,21,22,22,23,23,24,24,25,25,26,26,27,27,28,28,29,29,30,30,31,31,32,32,33,33,34,34,35,35,36,36,37,37,38,38,39,39,40,40,41,41,42,42,43,43,44,44,45,45,46,46,47,47,48,48,49,49,50,50,51,51,52,52,53,53,54,54,55,55,56,56,57,57,58,58,59,59,60,60,61,61,62,62],"right_children":[2,4,6,8,10,12,14,16,18,20,22,24,26,28,30,32,34,36,38,40,42,44,46,48,50,52,54,56,58,60,62,64,66,68,70,72,74,76,78,80,82,84,86,88,90,92,94,96,98,100,102,104,106,108,110,112,114,116,118,120,122,124,126,-1,-1,-1,-1,-1,-1,-1,-1,-1,-1,-1,-1,-1,-1,-1,-1,-1,-1,-1,-1,-1,-1,-1,-1,-1,-1,-1,-1,-1,-1,-1,-1,-1,-1,-1,-1,-1,-1,-1,-1,-1,-1,-1,-1,-1,-1,-1,-1,-1,-1,-1,-1,-1,-1,-1,-1,-1,-1,-1,-1,-1,-1,-1,-1],"split_conditions":[4.888889E0,4E0,1E0,1.5E0,5.625E0,1E0,1E0,1E0,1E0,2E0,4E0,2.4E1,2E0,1E0,2E0,1E0,9.5E1,1E0,2E0,1E0,1E0,3.7692308E0,5E0,4E0,1.43E2,6.2666668E1,4.4E1,1E0,1.8E1,3.6833332E1,2.55E0,3E1,2.2833334E1,1.5714285E0,9.9E0,1E0,9E0,5E0,1.12666664E2,4.2727275E0,1E0,1E0,8.9E1,2.375E0,1E0,2.4E1,2E0,3.6875E0,3.2222223E0,1.95E0,2E0,1E0,4.4E1,3.6983334E1,1E0,1E0,1.12E2,1.9E0,8.89999E1,4E0,5.3E1,3.7E1,8.3E1,-7.954131E-4,-4.8577007E-2,2.815541E-2,3.6392943E-3,-5.505673E-2,1.713298E-2,-2.1750761E-2,4.8499587E-3,3.424203E-2,5.3581264E-2,-4.568948E-2,1.5204154E-2,9.8499805E-3,-5.67379E-2,-5.5125743E-2,6.7050136E-3,2.0652192E-2,3.1833775E-2,4.948862E-2,-4.293121E-3,3.5267487E-2,4.9312312E-2,5.030554E-2,2.0127526E-2,4.8163656E-2,3.5325815E-3,-1.9868944E-2,1.722311E-2,2.41861E-2,3.937257E-2,-2.4582896E-2,8.971927E-3,-4.392152E-2,-6.5976724E-2,-1.0386391E-2,-4.355484E-2,-3.272735E-2,1.9573786E-3,-1.53536415E-2,1.2972976E-2,-5.463607E-3,-6.0991157E-2,-2.5512278E-2,2.2681689E-2,-1.7201228E-2,2.8930906E-2,3.1016385E-2,4.7942877E-2,3.3784814E-2,-1.0558879E-2,2.7683473E-3,-1.0462699E-1,-3.1651657E-2,2.8423188E-2,-9.297983E-2,3.8109418E-2,-1.4444127E-2,-7.0503786E-2,-4.7244817E-2,2.0739734E-2,6.3944147E-3,-8.657542E-2,-3.414182E-3,-6.1339747E-2],"split_indices":[13,22,92,11,12,90,102,89,102,21,37,41,33,118,33,106,18,118,82,90,106,11,3,37,62,10,93,117,26,29,59,26,16,12,46,90,26,3,54,12,126,107,93,11,111,41,23,11,11,59,33,102,93,19,106,116,42,47,27,49,20,6,5,0,0,0,0,0,0,0,0,0,0,0,0,0,0,0,0,0,0,0,0,0,0,0,0,0,0,0,0,0,0,0,0,0,0,0,0,0,0,0,0,0,0,0,0,0,0,0,0,0,0,0,0,0,0,0,0,0,0,0,0,0,0,0,0],"split_type":[0,0,0,0,0,0,0,0,0,0,0,0,0,0,0,0,0,0,0,0,0,0,0,0,0,0,0,0,0,0,0,0,0,0,0,0,0,0,0,0,0,0,0,0,0,0,0,0,0,0,0,0,0,0,0,0,0,0,0,0,0,0,0,0,0,0,0,0,0,0,0,0,0,0,0,0,0,0,0,0,0,0,0,0,0,0,0,0,0,0,0,0,0,0,0,0,0,0,0,0,0,0,0,0,0,0,0,0,0,0,0,0,0,0,0,0,0,0,0,0,0,0,0,0,0,0,0],"sum_hessian":[2.1724503E5,1.2520973E5,9.20353E4,2.1839672E4,1.03370055E5,8.765369E4,4.381613E3,1.2881384E4,8.958288E3,4.466138E4,5.870868E4,8.5777836E4,1.8758461E3,3.4441313E3,9.374813E2,1.0358554E4,2.5228296E3,7.4750034E3,1.4832848E3,1.1144331E4,3.3517047E4,3.3109692E3,5.5397707E4,6.9721016E4,1.6056819E4,4.4110605E2,1.4347401E3,3.1883833E3,2.5574808E2,1.4091304E2,7.965683E2,7.370513E3,2.9880405E3,5.183206E2,2.004509E3,6.6691123E3,8.0589105E2,1.1627119E3,3.2057288E2,9.893335E3,1.2509963E3,2.398931E4,9.527738E3,1.1487036E3,2.1622656E3,5.1039367E4,4.358343E3,9.746891E3,5.997413E4,1.3007996E4,3.0488237E3,1.7668465E2,2.644214E2,1.846467E2,1.2500934E3,2.8752725E3,3.1311084E2,1.8214871E2,7.359937E1,8.806147E1,5.285157E1,6.9963885E2,9.6929436E1,7.187016E3,1.8349687E2,1.8552899E3,1.1327506E3,4.8429895E2,3.402167E1,1.4355391E3,5.6897E2,5.922044E3,7.470684E2,4.4126064E1,7.61765E2,1.062761E3,9.995094E1,2.8293988E2,3.7632996E1,4.074899E3,5.818436E3,1.216617E3,3.437945E1,1.848797E4,5.501339E3,9.129932E3,3.9780658E2,1.0978502E2,1.0389186E3,1.953897E3,2.083688E2,3.8614156E4,1.2425211E4,1.2167261E3,3.141617E3,6.840022E2,9.062888E3,3.6695723E3,5.6304555E4,1.1379656E4,1.6283395E3,1.01075244E3,2.0380713E3,1.2956653E2,4.7118126E1,7.17672E1,1.9265419E2,8.419644E1,1.0045026E2,8.2383093E2,4.262624E2,2.7426355E3,1.3263698E2,3.01053E2,1.2057827E1,1.4563618E2,3.6512527E1,4.678043E0,6.8921326E1,1.2229163E1,7.583231E1,2.577774E1,2.7073828E1,6.904366E2,9.202291E0,5.5480164E1,4.1449272E1],"tree_param":{"num_deleted":"0","num_feature":"128","num_nodes":"127","size_leaf_vector":"1"}},{"base_weights":[-2.4358324E-4,5.1098424E-1,-6.9701296E-1,5.5903363E-1,6.387683E-2,-7.503019E-1,3.641983E-1,5.122964E-1,9.310104E-1,-7.033214E-2,5.2346164E-1,-8.448309E-1,-3.9760128E-1,4.9434647E-1,-1.1297468E-1,-4.2118847E-2,5.383486E-1,9.388747E-1,2.89258E-2,-1.6431708E-2,-9.635197E-1,4.7543314E-1,1.2573096E0,-8.6667687E-1,3.6274636E-1,-4.880463E-1,1.9398701E-1,9.835191E-2,5.7023346E-1,-8.5495174E-1,1.7477725E-2,-1.3316418E-1,6.6792715E-1,2.4116364E-1,5.9795135E-1,9.7601235E-1,7.750378E-1,2.691618E-1,-8.6372435E-2,9.513767E-2,-4.6446118E-1,-1.1039386E0,-1.3848369E-1,-5.369616E-1,5.093091E-1,-7.166689E-2,1.2895867E0,-1.0460408E0,-7.197396E-1,-5.335834E-1,4.7190058E-1,-5.4738575E-1,2.9742593E-1,-3.1861532E-1,4.1917145E-1,-6.047865E-1,2.7890402E-1,6.309721E-1,-1.3235469E-1,-7.265281E-2,-4.656924E-1,1.2015454E-1,-4.45526E-1,5.778031E-3,-1.6391924E-2,3.536266E-2,-8.683145E-2,-1.1885077E-3,2.5226561E-2,3.8481038E-2,2.4517523E-2,5.0598145E-2,3.8538363E-2,3.433288E-2,5.7293452E-2,2.2171898E-2,-9.0372935E-2,-3.1809006E-3,1.0935479E-2,-3.0361861E-2,-1.0233472E-2,-5.8408994E-2,4.9002945E-2,4.1524388E-2,-3.601199E-2,3.9878655E-2,-4.426859E-2,4.8049733E-2,2.3074532E-2,6.949804E-2,4.183539E-2,-5.379011E-2,-1.2311648E-2,-4.20968E-2,-2.1437798E-2,-7.793933E-2,1.3462817E-3,1.4890909E-2,4.7173917E-2,-1.5987663E-2,-3.6286104E-2,-5.3520324E-3,2.4415128E-2,-2.6534969E-2,1.8264178E-2,8.54261E-3,4.2388123E-2,4.6648946E-2,-4.1329276E-2,6.8509224E-4,3.997355E-2,-5.2750327E-2,3.2744925E-2,-3.686483E-2,1.7989343E-2,-5.1459488E-2,1.0488105E-2,-9.304818E-2,7.6890485E-3,-1.2183446E-2,-7.154765E-2],"categories":[],"categories_nodes":[],"categories_segments":[],"categories_sizes":[],"default_left":[0,0,0,0,0,0,0,0,0,0,0,0,0,0,0,0,0,0,0,0,0,0,0,0,0,0,0,0,0,0,0,0,0,0,0,0,0,0,0,0,0,0,0,0,0,0,0,0,0,0,0,0,0,0,0,0,0,0,0,0,0,0,0,0,0,0,0,0,0,0,0,0,0,0,0,0,0,0,0,0,0,0,0,0,0,0,0,0,0,0,0,0,0,0,0,0,0,0,0,0,0,0,0,0,0,0,0,0,0,0,0,0,0,0,0,0,0,0,0,0,0],"id":10,"left_children":[1,3,5,7,9,11,13,15,17,19,21,23,25,27,29,31,33,35,37,39,41,43,45,47,49,51,53,55,57,59,61,63,65,67,69,71,73,75,-1,77,79,81,83,85,87,-1,89,91,93,95,97,99,101,103,105,107,109,111,113,-1,115,117,119,-1,-1,-1,-1,-1,-1,-1,-1,-1,-1,-1,-1,-1,-1,-1,-1,-1,-1,-1,-1,-1,-1,-1,-1,-1,-1,-1,-1,-1,-1,-1,-1,-1,-1,-1,-1,-1,-1,-1,-1,-1,-1,-1,-1,-1,-1,-1,-1,-1,-1,-1,-1,-1,-1,-1,-1,-1,-1],"loss_changes":[7.682741E4,2.6725742E3,5.1620586E3,1.9524414E3,7.447153E2,2.897375E3,2.7113654E2,1.4414512E3,8.891797E1,4.498961E2,9.558362E1,1.8085E3,9.8312744E2,1.03011536E2,9.0635086E1,2.896995E2,1.688209E3,7.486719E1,4.6620255E1,4.4064636E2,6.146106E1,8.816937E1,1.6353485E1,1.773582E3,1.19481674E2,7.429419E2,2.8144623E2,7.0345535E1,1.22900024E2,3.1920654E1,3.7953022E1,1.9234418E2,4.9390045E1,1.1111589E3,1.4661562E3,7.3953125E1,7.464575E1,3.5939137E1,0E0,1.3847409E2,6.506647E1,6.19718E1,4.484665E1,3.951542E1,5.3130615E1,0E0,6.36322E0,7.2133203E2,1.315625E3,7.633287E1,8.894464E1,6.012754E2,8.652035E1,1.0816541E2,1.8010892E2,3.940027E1,6.0805363E1,1.075564E2,6.869007E1,0E0,3.3057526E1,4.3807774E1,2.8477232E1,0E0,0E0,0E0,0E0,0E0,0E0,0E0,0E0,0E0,0E0,0E0,0E0,0E0,0E0,0E0,0E0,0E0,0E0,0E0,0E0,0E0,0E0,0E0,0E0,0E0,0E0,0E0,0E0,0E0,0E0,0E0,0E0,0E0,0E0,0E0,0E0,0E0,0E0,0E0,0E0,0E0,0E0,0E0,0E0,0E0,0E0,0E0,0E0,0E0,0E0,0E0,0E0,0E0,0E0,0E0,0E0,0E0,0E0],"parents":[2147483647,0,0,1,1,2,2,3,3,4,4,5,5,6,6,7,7,8,8,9,9,10,10,11,11,12,12,13,13,14,14,15,15,16,16,17,17,18,18,19,19,20,20,21,21,22,22,23,23,24,24,25,25,26,26,27,27,28,28,29,29,30,30,31,31,32,32,33,33,34,34,35,35,36,36,37,37,39,39,40,40,41,41,42,42,43,43,44,44,46,46,47,47,48,48,49,49,50,50,51,51,52,52,53,53,54,54,55,55,56,56,57,57,58,58,60,60,61,61,62,62],"right_children":[2,4,6,8,10,12,14,16,18,20,22,24,26,28,30,32,34,36,38,40,42,44,46,48,50,52,54,56,58,60,62,64,66,68,70,72,74,76,-1,78,80,82,84,86,88,-1,90,92,94,96,98,100,102,104,106,108,110,112,114,-1,116,118,120,-1,-1,-1,-1,-1,-1,-1,-1,-1,-1,-1,-1,-1,-1,-1,-1,-1,-1,-1,-1,-1,-1,-1,-1,-1,-1,-1,-1,-1,-1,-1,-1,-1,-1,-1,-1,-1,-1,-1,-1,-1,-1,-1,-1,-1,-1,-1,-1,-1,-1,-1,-1,-1,-1,-1,-1,-1,-1],"split_conditions":[4.7272725E0,1E0,1E0,1E0,2E0,1E0,1E0,4E0,1E0,5E0,1E0,1E0,1E0,2E0,2E0,1E0,1.1666666E0,1E0,1E0,2E0,1.258E2,6E0,3.5E0,6.4E1,4.1E1,1.44E2,2E0,4.8E1,1E0,3.677778E1,3.21E1,3.7692308E0,4.3636365E0,4E0,6E0,1E0,2E0,7.8E1,-8.6372435E-2,2E0,3.677778E1,2.9E0,9.61E1,2.4E1,6E0,-7.166689E-2,8.1E1,1E0,9.86E1,1.6E1,1E0,5.3E1,2E0,1.1E1,9.6E1,9.6E1,1.11E2,4.4E1,1E0,-7.265281E-2,7E1,3.6875E0,2.02E1,5.778031E-3,-1.6391924E-2,3.536266E-2,-8.683145E-2,-1.1885077E-3,2.5226561E-2,3.8481038E-2,2.4517523E-2,5.0598145E-2,3.8538363E-2,3.433288E-2,5.7293452E-2,2.2171898E-2,-9.0372935E-2,-3.1809006E-3,1.0935479E-2,-3.0361861E-2,-1.0233472E-2,-5.8408994E-2,4.9002945E-2,4.1524388E-2,-3.601199E-2,3.9878655E-2,-4.426859E-2,4.8049733E-2,2.3074532E-2,6.949804E-2,4.183539E-2,-5.379011E-2,-1.2311648E-2,-4.20968E-2,-2.1437798E-2,-7.793933E-2,1.3462817E-3,1.4890909E-2,4.7173917E-2,-1.5987663E-2,-3.6286104E-2,-5.3520324E-3,2.4415128E-2,-2.6534969E-2,1.8264178E-2,8.54261E-3,4.2388123E-2,4.6648946E-2,-4.1329276E-2,6.8509224E-4,3.997355E-2,-5.2750327E-2,3.2744925E-2,-3.686483E-2,1.7989343E-2,-5.1459488E-2,1.0488105E-2,-9.304818E-2,7.6890485E-3,-1.2183446E-2,-7.154765E-2],"split_indices":[13,102,92,90,23,106,102,37,116,3,88,90,91,33,33,111,11,118,98,84,17,34,73,93,93,50,33,93,89,29,45,11,13,2,2,117,23,93,0,21,29,55,18,40,2,0,93,89,4,26,103,20,33,63,28,66,4,25,124,0,93,11,16,0,0,0,0,0,0,0,0,0,0,0,0,0,0,0,0,0,0,0,0,0,0,0,0,0,0,0,0,0,0,0,0,0,0,0,0,0,0,0,0,0,0,0,0,0,0,0,0,0,0,0,0,0,0,0,0,0,0],"split_type":[0,0,0,0,0,0,0,0,0,0,0,0,0,0,0,0,0,0,0,0,0,0,0,0,0,0,0,0,0,0,0,0,0,0,0,0,0,0,0,0,0,0,0,0,0,0,0,0,0,0,0,0,0,0,0,0,0,0,0,0,0,0,0,0,0,0,0,0,0,0,0,0,0,0,0,0,0,0,0,0,0,0,0,0,0,0,0,0,0,0,0,0,0,0,0,0,0,0,0,0,0,0,0,0,0,0,0,0,0,0,0,0,0,0,0,0,0,0,0,0,0],"sum_hessian":[2.1567938E5,1.24403414E5,9.127597E4,1.12331234E5,1.2072179E4,8.691196E4,4.364005E3,9.979482E4,1.2536415E4,9.344286E3,2.727892E3,6.854066E4,1.837131E4,3.428776E3,9.352291E2,4.478919E3,9.53159E4,1.2428027E4,1.0838715E2,8.813447E3,5.3083923E2,2.561872E3,1.6602013E2,6.732301E4,1.2176434E3,1.5935227E4,2.4360833E3,5.517777E2,2.8769983E3,1.3901225E2,7.9621686E2,3.9706025E3,5.083163E2,1.5923719E4,7.939218E4,1.012744E4,2.300587E3,9.609067E1,1.2296481E1,7.0569067E3,1.7565403E3,4.5334338E2,7.749583E1,8.2466995E1,2.479405E3,1.4534315E0,1.645667E2,3.0313596E4,3.7009414E4,1.3176392E2,1.0858795E3,1.4816221E4,1.1190063E3,7.434053E2,1.692678E3,1.12256935E2,4.3952078E2,2.6481665E3,2.2883168E2,5.3726933E1,8.5285324E1,6.5230145E2,1.4391544E2,1.7434707E3,2.2271316E3,5.008312E2,7.4851274E0,7.938709E3,7.9850093E3,3.0586885E4,4.8805297E4,8.614587E3,1.5128542E3,1.8601166E3,4.4047037E2,8.93764E1,6.71427E0,3.0889482E3,3.9679583E3,1.1326968E3,6.238435E2,4.4021283E2,1.313056E1,2.8912199E1,4.858363E1,1.6805765E1,6.566123E1,2.3552998E2,2.243875E3,1.3301637E2,3.1550323E1,2.9225738E4,1.0878578E3,2.6062693E4,1.094672E4,4.5945656E1,8.581826E1,7.942971E2,2.9158234E2,6.509781E3,8.306439E3,3.5891226E2,7.6009406E2,5.676082E2,1.757971E2,1.0726178E3,6.200601E2,1.3746182E1,9.851075E1,2.918596E2,1.4766118E2,3.6452274E1,2.6117144E3,1.0242833E2,1.2640334E2,4.621053E1,3.9074795E1,9.9800415E0,6.423214E2,1.2048275E2,2.3432686E1],"tree_param":{"num_deleted":"0","num_feature":"128","num_nodes":"121","size_leaf_vector":"1"}},{"base_weights":[-2.7113888E-4,4.876661E-1,-6.698057E-1,5.336842E-1,6.0654417E-2,-7.212754E-1,3.4791163E-1,4.886436E-1,8.948752E-1,-6.69439E-2,4.984922E-1,-1.1359435E0,-6.4350015E-1,4.725702E-1,-1.07973814E-1,1.8057664E-1,5.318678E-1,9.0250695E-1,2.6165238E-2,-1.562638E-2,-9.2788434E-1,4.5238674E-1,1.2090671E0,-1.1503206E0,5.5660535E-2,-7.41563E-1,-3.1014466E-1,3.3640036E-1,6.906357E-1,-8.251963E-1,1.6392572E-2,-2.3579938E-2,5.834997E-1,6.078366E-2,5.6909764E-1,9.141451E-1,3.659681E-1,2.5587496E-1,-8.305392E-2,9.045538E-2,-4.4176176E-1,-1.0652465E0,-1.3175917E-1,-5.1291203E-1,4.849576E-1,-6.9076486E-2,1.2407798E0,-1.1563421E0,1.0979744E0,8.791464E-1,-3.2901356E-1,-7.6498765E-1,3.5502785E-1,-3.9675426E-1,2.3042074E-1,2.032616E-1,6.264153E-1,7.0966226E-1,-7.279746E-1,-9.9650496E-1,4.7025293E-1,9.7841114E-2,-5.5014104E-1,5.829555E-3,-2.359263E-2,-4.356133E-2,2.9946843E-2,1.5397501E-2,-6.6893534E-3,3.1024963E-2,1.4766111E-2,4.7540575E-2,3.7624415E-2,-6.74847E-3,4.1841976E-2,2.097123E-2,-9.239841E-2,-4.8261243E-3,9.274554E-3,-3.251161E-2,-1.3628026E-2,2.9510876E-2,-5.714472E-2,3.9397333E-2,-3.439523E-2,3.818348E-2,-4.2104598E-2,2.6733125E-2,2.8559014E-3,-2.1003282E-3,6.346173E-2,-5.9218403E-2,-3.6361378E-2,-3.3295337E-2,9.4095305E-2,-7.01149E-2,5.703445E-2,-3.3550855E-2,4.43338E-2,-4.434065E-2,-2.8074224E-2,9.477912E-3,4.2412568E-2,-2.266503E-2,1.5595913E-2,-1.4400533E-2,2.2879897E-2,-9.018397E-4,2.5337175E-2,-1.0448515E-1,3.278619E-2,-6.019325E-2,3.6137756E-2,-7.0061356E-2,4.357902E-2,1.1843694E-2,-6.257567E-2,-3.1413164E-2,9.356409E-2,-3.7945576E-2,8.2459375E-3,1.0528351E-2,-4.663971E-2],"categories":[],"categories_nodes":[],"categories_segments":[],"categories_sizes":[],"default_left":[0,0,0,0,0,0,0,0,0,0,0,0,0,0,0,0,0,0,0,0,0,0,0,0,0,0,0,0,0,0,0,0,0,0,0,0,0,0,0,0,0,0,0,0,0,0,0,0,0,0,0,0,0,0,0,0,0,0,0,0,0,0,0,0,0,0,0,0,0,0,0,0,0,0,0,0,0,0,0,0,0,0,0,0,0,0,0,0,0,0,0,0,0,0,0,0,0,0,0,0,0,0,0,0,0,0,0,0,0,0,0,0,0,0,0,0,0,0,0,0,0,0,0],"id":11,"left_children":[1,3,5,7,9,11,13,15,17,19,21,23,25,27,29,31,33,35,37,39,41,43,45,47,49,51,53,55,57,59,61,63,65,67,69,71,73,75,-1,77,79,81,83,85,87,-1,89,91,93,95,97,99,101,103,105,107,109,111,113,115,117,119,121,-1,-1,-1,-1,-1,-1,-1,-1,-1,-1,-1,-1,-1,-1,-1,-1,-1,-1,-1,-1,-1,-1,-1,-1,-1,-1,-1,-1,-1,-1,-1,-1,-1,-1,-1,-1,-1,-1,-1,-1,-1,-1,-1,-1,-1,-1,-1,-1,-1,-1,-1,-1,-1,-1,-1,-1,-1,-1,-1,-1],"loss_changes":[6.994407E4,2.433545E3,4.72791E3,1.8182969E3,6.731894E2,2.7699336E3,2.4700195E2,1.3235488E3,8.2146484E1,4.1224152E2,8.853711E1,2.3249219E2,2.3646719E3,1.01099304E2,8.3315544E1,1.0062483E3,1.5288164E3,7.6384766E1,4.26576E1,3.981675E2,5.725943E1,8.05824E1,1.5276718E1,1.827539E2,5.1826336E1,1.4361621E3,7.7004785E2,8.1062195E1,3.5898132E1,3.1099693E1,3.6824043E1,5.1025693E2,9.290283E1,3.0713943E2,1.1366914E3,7.055859E1,6.2033215E1,3.407366E1,0E0,1.2533803E2,6.1749146E1,5.8198395E1,4.0631252E1,3.589376E1,5.2542725E1,0E0,6.025467E0,1.5993164E2,5.1475525E1,3.2671555E1,4.7003334E1,1.3563652E3,9.530966E1,5.681731E2,2.6768265E2,9.68936E1,5.399716E1,3.328949E1,2.0435616E1,3.8739388E1,2.7031878E1,4.0212933E1,2.9396555E1,0E0,0E0,0E0,0E0,0E0,0E0,0E0,0E0,0E0,0E0,0E0,0E0,0E0,0E0,0E0,0E0,0E0,0E0,0E0,0E0,0E0,0E0,0E0,0E0,0E0,0E0,0E0,0E0,0E0,0E0,0E0,0E0,0E0,0E0,0E0,0E0,0E0,0E0,0E0,0E0,0E0,0E0,0E0,0E0,0E0,0E0,0E0,0E0,0E0,0E0,0E0,0E0,0E0,0E0,0E0,0E0,0E0,0E0,0E0,0E0],"parents":[2147483647,0,0,1,1,2,2,3,3,4,4,5,5,6,6,7,7,8,8,9,9,10,10,11,11,12,12,13,13,14,14,15,15,16,16,17,17,18,18,19,19,20,20,21,21,22,22,23,23,24,24,25,25,26,26,27,27,28,28,29,29,30,30,31,31,32,32,33,33,34,34,35,35,36,36,37,37,39,39,40,40,41,41,42,42,43,43,44,44,46,46,47,47,48,48,49,49,50,50,51,51,52,52,53,53,54,54,55,55,56,56,57,57,58,58,59,59,60,60,61,61,62,62],"right_children":[2,4,6,8,10,12,14,16,18,20,22,24,26,28,30,32,34,36,38,40,42,44,46,48,50,52,54,56,58,60,62,64,66,68,70,72,74,76,-1,78,80,82,84,86,88,-1,90,92,94,96,98,100,102,104,106,108,110,112,114,116,118,120,122,-1,-1,-1,-1,-1,-1,-1,-1,-1,-1,-1,-1,-1,-1,-1,-1,-1,-1,-1,-1,-1,-1,-1,-1,-1,-1,-1,-1,-1,-1,-1,-1,-1,-1,-1,-1,-1,-1,-1,-1,-1,-1,-1,-1,-1,-1,-1,-1,-1,-1,-1,-1,-1,-1,-1,-1,-1,-1,-1,-1],"split_conditions":[4.888889E0,1E0,1E0,1E0,2E0,5E0,1E0,4E0,1E0,5E0,1E0,2E0,1E0,1E0,2E0,1.5E0,5E0,5E0,1E0,2E0,1.258E2,6E0,3.5E0,1E0,4.8E1,1E0,1E0,1E0,3E1,3.7444443E1,2E0,2.5833334E1,9.1333336E1,3.6875E0,1E0,1E0,2E0,4.2E0,-8.305392E-2,1.375E0,6.7E1,3.5E1,9.61E1,2.4E1,4.4E0,-6.9076486E-2,2.6923077E0,8.6E1,6.3E1,9.4833336E1,1E0,7.1E1,1E0,1.44E2,2E0,1E0,3.5944443E1,2.3E1,3.7E1,4E0,1.63E0,9.75E1,8.5E1,5.829555E-3,-2.359263E-2,-4.356133E-2,2.9946843E-2,1.5397501E-2,-6.6893534E-3,3.1024963E-2,1.4766111E-2,4.7540575E-2,3.7624415E-2,-6.74847E-3,4.1841976E-2,2.097123E-2,-9.239841E-2,-4.8261243E-3,9.274554E-3,-3.251161E-2,-1.3628026E-2,2.9510876E-2,-5.714472E-2,3.9397333E-2,-3.439523E-2,3.818348E-2,-4.2104598E-2,2.6733125E-2,2.8559014E-3,-2.1003282E-3,6.346173E-2,-5.9218403E-2,-3.6361378E-2,-3.3295337E-2,9.4095305E-2,-7.01149E-2,5.703445E-2,-3.3550855E-2,4.43338E-2,-4.434065E-2,-2.8074224E-2,9.477912E-3,4.2412568E-2,-2.266503E-2,1.5595913E-2,-1.4400533E-2,2.2879897E-2,-9.018397E-4,2.5337175E-2,-1.0448515E-1,3.278619E-2,-6.019325E-2,3.6137756E-2,-7.0061356E-2,4.357902E-2,1.1843694E-2,-6.257567E-2,-3.1413164E-2,9.356409E-2,-3.7945576E-2,8.2459375E-3,1.0528351E-2,-4.663971E-2],"split_indices":[13,102,92,90,23,30,102,2,116,3,88,83,106,106,33,11,37,3,98,84,17,34,73,88,20,90,91,103,26,29,84,16,18,11,118,118,23,49,0,11,93,20,18,40,13,0,11,93,93,18,117,93,103,50,33,107,19,93,6,49,71,17,27,0,0,0,0,0,0,0,0,0,0,0,0,0,0,0,0,0,0,0,0,0,0,0,0,0,0,0,0,0,0,0,0,0,0,0,0,0,0,0,0,0,0,0,0,0,0,0,0,0,0,0,0,0,0,0,0,0,0,0,0],"split_type":[0,0,0,0,0,0,0,0,0,0,0,0,0,0,0,0,0,0,0,0,0,0,0,0,0,0,0,0,0,0,0,0,0,0,0,0,0,0,0,0,0,0,0,0,0,0,0,0,0,0,0,0,0,0,0,0,0,0,0,0,0,0,0,0,0,0,0,0,0,0,0,0,0,0,0,0,0,0,0,0,0,0,0,0,0,0,0,0,0,0,0,0,0,0,0,0,0,0,0,0,0,0,0,0,0,0,0,0,0,0,0,0,0,0,0,0,0,0,0,0,0,0,0],"sum_hessian":[2.1409664E5,1.2384344E5,9.02532E4,1.1179526E5,1.2048181E4,8.590877E4,4.3444307E3,9.9402125E4,1.2393125E4,9.330002E3,2.718179E3,1.3566062E4,7.234271E4,3.4115347E3,9.3289606E2,1.2231457E4,8.717067E4,1.2285159E4,1.0796585E2,8.806119E3,5.2388245E2,2.554094E3,1.6408511E2,1.3404368E4,1.616937E2,5.5898027E4,1.6444686E4,2.1016885E3,1.3098461E3,1.3702661E2,7.9586945E2,8.11873E3,4.112727E3,6.3847285E3,8.0785945E4,1.2023648E4,2.615107E2,9.5774925E1,1.2190926E1,7.0515103E3,1.754609E3,4.4650516E2,7.737732E1,8.288525E1,2.4712087E3,1.469605E0,1.626155E2,1.3369048E4,3.532032E1,5.1073456E1,1.1062024E2,5.4729242E4,1.1687876E3,1.417399E4,2.2706965E3,1.4415906E3,6.6009796E2,1.2930038E3,1.684219E1,1.2122653E2,1.5800083E1,6.965554E2,9.931402E1,6.1853604E3,1.9333695E3,4.260269E1,4.0701243E3,2.8120073E3,3.5727212E3,6.801482E4,1.2771124E4,9.796714E3,2.2269353E3,1.2705564E2,1.3445506E2,8.960946E1,6.165466E0,2.3762817E3,4.675228E3,7.848112E2,9.697978E2,1.9708841E1,4.267963E2,2.900105E1,4.8376266E1,1.672083E1,6.616441E1,2.213771E3,2.5743777E2,3.5185223E0,1.5909698E2,1.254778E4,8.2126733E2,1.0913964E1,2.4406355E1,4.8042426E0,4.626921E1,8.668238E1,2.393786E1,3.4232754E4,2.0496486E4,8.762143E2,2.9257336E2,1.3126928E4,1.0470618E3,6.917699E2,1.5789265E3,8.342198E2,6.073708E2,6.2963123E0,6.5380164E2,8.168888E0,1.284835E3,1.1940446E1,4.9017434E0,2.078217E1,1.0044436E2,9.165323E0,6.63476E0,4.982675E1,6.4672864E2,3.3388317E1,6.5925705E1],"tree_param":{"num_deleted":"0","num_feature":"128","num_nodes":"123","size_leaf_vector":"1"}},{"base_weights":[-3.0098128E-4,4.6602097E-1,-6.4308476E-1,5.1019096E-1,5.7743777E-2,-6.92694E-1,3.320565E-1,4.667701E-1,8.6075944E-1,-6.372835E-2,4.7568125E-1,-1.1008248E0,-6.16944E-1,4.5125392E-1,-1.03044465E-1,3.956249E-1,6.50225E-1,8.68175E-1,2.3522127E-2,-1.4862915E-2,-8.9432365E-1,4.3142703E-1,1.1642151E0,-1.1150235E0,5.2643202E-2,-6.652863E-1,2.936566E-2,7.301567E-2,5.2422875E-1,-7.9614586E-1,1.5489378E-2,3.307424E-1,6.0410416E-1,3.203814E-1,7.3039174E-1,8.7954426E-1,3.4892455E-1,2.2656587E-1,-8.8166445E-2,8.6003974E-2,-4.2022634E-1,-1.028847E0,-1.2543333E-1,-4.8671627E-1,4.6256042E-1,-6.6681825E-2,1.195403E0,-1.1530739E0,-7.5857234E-1,8.276613E-1,-3.13633E-1,-7.5388545E-1,-3.5623607E-1,-1.4045778E-1,5.834568E-1,-5.925494E-1,2.445658E-1,5.82696E-1,-1.4614294E-1,-7.035537E-2,-4.2149016E-1,2.9999778E-1,-1.3930285E-1,-1.0006857E-3,1.847841E-2,9.38551E-3,3.331272E-2,1.8742317E-2,-3.0722547E-2,4.3286618E-2,2.8984813E-2,4.577702E-2,3.6075193E-2,-6.4099627E-3,4.00273E-2,3.1338897E-2,-4.0247794E-2,-2.9436578E-3,9.952859E-3,-2.7831165E-2,-8.629874E-3,-5.463287E-2,4.8525833E-2,3.741346E-2,-3.2864034E-2,3.6578797E-2,-3.9918397E-2,4.4943023E-2,2.0833898E-2,6.4674675E-2,3.7824187E-2,-5.8377404E-2,-1.0825376E-2,-6.442189E-2,-2.9734997E-2,-6.802153E-2,5.365478E-2,-3.21172E-2,4.18081E-2,-4.6435323E-2,-3.0841691E-2,-2.1210209E-2,1.3971105E-2,-1.6131893E-2,1.4515503E-2,-6.3217706E-3,3.946772E-2,5.8363862E-2,-3.8845215E-2,2.7099735E-4,3.8611002E-2,-5.084917E-2,3.028777E-2,1.3132068E-2,-4.1435916E-2,-4.8509236E-2,1.0975935E-2,5.26642E-4,4.0330086E-2,-5.4580808E-2,-3.8302478E-3],"categories":[],"categories_nodes":[],"categories_segments":[],"categories_sizes":[],"default_left":[0,0,0,0,0,0,0,0,0,0,0,0,0,0,0,0,0,0,0,0,0,0,0,0,0,0,0,0,0,0,0,0,0,0,0,0,0,0,0,0,0,0,0,0,0,0,0,0,0,0,0,0,0,0,0,0,0,0,0,0,0,0,0,0,0,0,0,0,0,0,0,0,0,0,0,0,0,0,0,0,0,0,0,0,0,0,0,0,0,0,0,0,0,0,0,0,0,0,0,0,0,0,0,0,0,0,0,0,0,0,0,0,0,0,0,0,0,0,0,0,0],"id":12,"left_children":[1,3,5,7,9,11,13,15,17,19,21,23,25,27,29,31,33,35,37,39,41,43,45,47,49,51,53,55,57,59,61,63,65,67,69,71,73,75,-1,77,79,81,83,85,87,-1,89,91,93,95,97,99,101,103,105,107,109,111,113,-1,115,117,119,-1,-1,-1,-1,-1,-1,-1,-1,-1,-1,-1,-1,-1,-1,-1,-1,-1,-1,-1,-1,-1,-1,-1,-1,-1,-1,-1,-1,-1,-1,-1,-1,-1,-1,-1,-1,-1,-1,-1,-1,-1,-1,-1,-1,-1,-1,-1,-1,-1,-1,-1,-1,-1,-1,-1,-1,-1,-1],"loss_changes":[6.36882E4,2.2206328E3,4.3218945E3,1.691043E3,6.1039325E2,2.627496E3,2.2437802E2,1.2902461E3,7.600293E1,3.781028E2,8.199829E1,2.1799316E2,2.2403594E3,9.36839E1,7.6497246E1,9.6354395E2,7.303154E2,7.134668E1,3.9775837E1,3.5982715E2,5.3409515E1,7.299176E1,1.4286484E1,1.7741309E2,4.6463493E1,1.8264844E3,4.697259E2,6.297888E1,1.11640625E2,3.0533066E1,3.5096977E1,7.400215E2,4.374751E2,2.753623E2,4.527871E2,6.69043E1,5.649759E1,4.11035E1,0E0,1.1543341E2,5.912903E1,5.7246674E1,3.683614E1,3.2468376E1,4.8924194E1,0E0,5.9722443E0,1.6072852E2,1.0957666E2,2.9659855E1,4.258528E1,1.241709E3,6.424131E2,2.9995428E2,1.712651E2,3.7590046E1,5.5296757E1,9.719006E1,6.414794E1,0E0,3.0362007E1,4.1168114E1,3.0737543E1,0E0,0E0,0E0,0E0,0E0,0E0,0E0,0E0,0E0,0E0,0E0,0E0,0E0,0E0,0E0,0E0,0E0,0E0,0E0,0E0,0E0,0E0,0E0,0E0,0E0,0E0,0E0,0E0,0E0,0E0,0E0,0E0,0E0,0E0,0E0,0E0,0E0,0E0,0E0,0E0,0E0,0E0,0E0,0E0,0E0,0E0,0E0,0E0,0E0,0E0,0E0,0E0,0E0,0E0,0E0,0E0,0E0,0E0],"parents":[2147483647,0,0,1,1,2,2,3,3,4,4,5,5,6,6,7,7,8,8,9,9,10,10,11,11,12,12,13,13,14,14,15,15,16,16,17,17,18,18,19,19,20,20,21,21,22,22,23,23,24,24,25,25,26,26,27,27,28,28,29,29,30,30,31,31,32,32,33,33,34,34,35,35,36,36,37,37,39,39,40,40,41,41,42,42,43,43,44,44,46,46,47,47,48,48,49,49,50,50,51,51,52,52,53,53,54,54,55,55,56,56,57,57,58,58,60,60,61,61,62,62],"right_children":[2,4,6,8,10,12,14,16,18,20,22,24,26,28,30,32,34,36,38,40,42,44,46,48,50,52,54,56,58,60,62,64,66,68,70,72,74,76,-1,78,80,82,84,86,88,-1,90,92,94,96,98,100,102,104,106,108,110,112,114,-1,116,118,120,-1,-1,-1,-1,-1,-1,-1,-1,-1,-1,-1,-1,-1,-1,-1,-1,-1,-1,-1,-1,-1,-1,-1,-1,-1,-1,-1,-1,-1,-1,-1,-1,-1,-1,-1,-1,-1,-1,-1,-1,-1,-1,-1,-1,-1,-1,-1,-1,-1,-1,-1,-1,-1,-1,-1,-1,-1,-1],"split_conditions":[4.888889E0,1E0,1E0,1E0,2E0,5E0,1E0,1E0,1E0,5E0,1E0,2E0,1.43E2,2E0,2E0,2.4E1,1.2222222E0,5E0,7.8E1,2E0,1.258E2,6E0,3.5E0,8.3E1,4.8E1,1E0,1.48E2,4.8E1,1E0,3.686111E1,9.4E0,5E0,2.4E0,3.0833334E1,4E0,1E0,2E0,1E0,-8.8166445E-2,2E0,3.677778E1,2.9E0,9.61E1,2.4E1,6E0,-6.6681825E-2,8.1E1,1E0,3E0,9.4833336E1,1E0,6.4E1,1.8E0,9.6166664E1,2E0,5.1E1,